digraph Tree {
node [shape=box, style="filled, rounded", color="black", fontname="helvetica"] ;
edge [fontname="helvetica"] ;
0 [label=<ImageBase &le; 14942208.0<br/>gini = 0.42<br/>samples = 110437<br/>value = [77330, 33107]<br/>class = Malware>, fillcolor="#f0b78e"] ;
1 [label=<Subsystem &le; 2.5<br/>gini = 0.095<br/>samples = 80293<br/>value = [76298, 3995]<br/>class = Malware>, fillcolor="#e68843"] ;
0 -> 1 [labeldistance=2.5, labelangle=45, headlabel="True"] ;
2 [label=<MajorOperatingSystemVersion &le; 5.5<br/>gini = 0.034<br/>samples = 77427<br/>value = [76100, 1327]<br/>class = Malware>, fillcolor="#e5833c"] ;
1 -> 2 ;
3 [label=<MinorOperatingSystemVersion &le; 1.5<br/>gini = 0.017<br/>samples = 76705<br/>value = [76039, 666]<br/>class = Malware>, fillcolor="#e5823b"] ;
2 -> 3 ;
4 [label=<ExportNb &le; 1118.5<br/>gini = 0.015<br/>samples = 76619<br/>value = [76023, 596]<br/>class = Malware>, fillcolor="#e5823b"] ;
3 -> 4 ;
5 [label=<SectionsMeanVirtualsize &le; 2225.0<br/>gini = 0.014<br/>samples = 76565<br/>value = [76020, 545]<br/>class = Malware>, fillcolor="#e5823a"] ;
4 -> 5 ;
6 [label=<ResourcesMaxEntropy &le; 3.398<br/>gini = 0.479<br/>samples = 78<br/>value = [31.0, 47.0]<br/>class = Legitimate>, fillcolor="#bcdef6"] ;
5 -> 6 ;
7 [label=<gini = 0.0<br/>samples = 25<br/>value = [25, 0]<br/>class = Malware>, fillcolor="#e58139"] ;
6 -> 7 ;
8 [label=<SectionsMaxEntropy &le; 6.071<br/>gini = 0.201<br/>samples = 53<br/>value = [6, 47]<br/>class = Legitimate>, fillcolor="#52aae8"] ;
6 -> 8 ;
9 [label=<CheckSum &le; 8581.5<br/>gini = 0.042<br/>samples = 47<br/>value = [1, 46]<br/>class = Legitimate>, fillcolor="#3d9fe6"] ;
8 -> 9 ;
10 [label=<SectionsMeanRawsize &le; 1792.0<br/>gini = 0.5<br/>samples = 2<br/>value = [1, 1]<br/>class = Malware>, fillcolor="#ffffff"] ;
9 -> 10 ;
11 [label=<gini = 0.0<br/>samples = 1<br/>value = [0, 1]<br/>class = Legitimate>, fillcolor="#399de5"] ;
10 -> 11 ;
12 [label=<gini = 0.0<br/>samples = 1<br/>value = [1, 0]<br/>class = Malware>, fillcolor="#e58139"] ;
10 -> 12 ;
13 [label=<gini = 0.0<br/>samples = 45<br/>value = [0, 45]<br/>class = Legitimate>, fillcolor="#399de5"] ;
9 -> 13 ;
14 [label=<DllCharacteristics &le; 17056.0<br/>gini = 0.278<br/>samples = 6<br/>value = [5, 1]<br/>class = Malware>, fillcolor="#ea9a61"] ;
8 -> 14 ;
15 [label=<gini = 0.0<br/>samples = 5<br/>value = [5, 0]<br/>class = Malware>, fillcolor="#e58139"] ;
14 -> 15 ;
16 [label=<gini = 0.0<br/>samples = 1<br/>value = [0, 1]<br/>class = Legitimate>, fillcolor="#399de5"] ;
14 -> 16 ;
17 [label=<FileAlignment &le; 3072.0<br/>gini = 0.013<br/>samples = 76487<br/>value = [75989.0, 498.0]<br/>class = Malware>, fillcolor="#e5823a"] ;
5 -> 17 ;
18 [label=<ImportsNb &le; 521.0<br/>gini = 0.008<br/>samples = 74999<br/>value = [74687, 312]<br/>class = Malware>, fillcolor="#e5823a"] ;
17 -> 18 ;
19 [label=<MajorImageVersion &le; 7.5<br/>gini = 0.007<br/>samples = 74874<br/>value = [74599, 275]<br/>class = Malware>, fillcolor="#e5813a"] ;
18 -> 19 ;
20 [label=<SizeOfOptionalHeader &le; 236.0<br/>gini = 0.007<br/>samples = 74823<br/>value = [74565, 258]<br/>class = Malware>, fillcolor="#e5813a"] ;
19 -> 20 ;
21 [label=<SectionMaxVirtualsize &le; 15089.0<br/>gini = 0.007<br/>samples = 74810<br/>value = [74560, 250]<br/>class = Malware>, fillcolor="#e5813a"] ;
20 -> 21 ;
22 [label=<ResourcesMinEntropy &le; 3.317<br/>gini = 0.243<br/>samples = 191<br/>value = [164.0, 27.0]<br/>class = Malware>, fillcolor="#e9965a"] ;
21 -> 22 ;
23 [label=<VersionInformationSize &le; 16.5<br/>gini = 0.103<br/>samples = 165<br/>value = [156, 9]<br/>class = Malware>, fillcolor="#e68844"] ;
22 -> 23 ;
24 [label=<SectionsMeanEntropy &le; 1.955<br/>gini = 0.039<br/>samples = 151<br/>value = [148, 3]<br/>class = Malware>, fillcolor="#e6843d"] ;
23 -> 24 ;
25 [label=<gini = 0.0<br/>samples = 2<br/>value = [0, 2]<br/>class = Legitimate>, fillcolor="#399de5"] ;
24 -> 25 ;
26 [label=<SizeOfHeapReserve &le; 34816.0<br/>gini = 0.013<br/>samples = 149<br/>value = [148, 1]<br/>class = Malware>, fillcolor="#e5823a"] ;
24 -> 26 ;
27 [label=<gini = 0.0<br/>samples = 1<br/>value = [0, 1]<br/>class = Legitimate>, fillcolor="#399de5"] ;
26 -> 27 ;
28 [label=<gini = 0.0<br/>samples = 148<br/>value = [148, 0]<br/>class = Malware>, fillcolor="#e58139"] ;
26 -> 28 ;
29 [label=<SectionMaxRawsize &le; 11008.0<br/>gini = 0.49<br/>samples = 14<br/>value = [8, 6]<br/>class = Malware>, fillcolor="#f8e0ce"] ;
23 -> 29 ;
30 [label=<gini = 0.0<br/>samples = 8<br/>value = [8, 0]<br/>class = Malware>, fillcolor="#e58139"] ;
29 -> 30 ;
31 [label=<gini = 0.0<br/>samples = 6<br/>value = [0, 6]<br/>class = Legitimate>, fillcolor="#399de5"] ;
29 -> 31 ;
32 [label=<ResourcesMinEntropy &le; 3.558<br/>gini = 0.426<br/>samples = 26<br/>value = [8, 18]<br/>class = Legitimate>, fillcolor="#91c9f1"] ;
22 -> 32 ;
33 [label=<AddressOfEntryPoint &le; 10943.5<br/>gini = 0.245<br/>samples = 21<br/>value = [3, 18]<br/>class = Legitimate>, fillcolor="#5aade9"] ;
32 -> 33 ;
34 [label=<gini = 0.0<br/>samples = 2<br/>value = [2, 0]<br/>class = Malware>, fillcolor="#e58139"] ;
33 -> 34 ;
35 [label=<ResourcesMaxSize &le; 852.0<br/>gini = 0.1<br/>samples = 19<br/>value = [1, 18]<br/>class = Legitimate>, fillcolor="#44a2e6"] ;
33 -> 35 ;
36 [label=<SectionsMeanRawsize &le; 4437.333<br/>gini = 0.5<br/>samples = 2<br/>value = [1, 1]<br/>class = Malware>, fillcolor="#ffffff"] ;
35 -> 36 ;
37 [label=<gini = 0.0<br/>samples = 1<br/>value = [1, 0]<br/>class = Malware>, fillcolor="#e58139"] ;
36 -> 37 ;
38 [label=<gini = 0.0<br/>samples = 1<br/>value = [0, 1]<br/>class = Legitimate>, fillcolor="#399de5"] ;
36 -> 38 ;
39 [label=<gini = 0.0<br/>samples = 17<br/>value = [0, 17]<br/>class = Legitimate>, fillcolor="#399de5"] ;
35 -> 39 ;
40 [label=<gini = 0.0<br/>samples = 5<br/>value = [5, 0]<br/>class = Malware>, fillcolor="#e58139"] ;
32 -> 40 ;
41 [label=<AddressOfEntryPoint &le; 808.0<br/>gini = 0.006<br/>samples = 74619<br/>value = [74396, 223]<br/>class = Malware>, fillcolor="#e5813a"] ;
21 -> 41 ;
42 [label=<MajorLinkerVersion &le; 6.5<br/>gini = 0.496<br/>samples = 11<br/>value = [5, 6]<br/>class = Legitimate>, fillcolor="#deeffb"] ;
41 -> 42 ;
43 [label=<gini = 0.0<br/>samples = 5<br/>value = [5, 0]<br/>class = Malware>, fillcolor="#e58139"] ;
42 -> 43 ;
44 [label=<gini = 0.0<br/>samples = 6<br/>value = [0, 6]<br/>class = Legitimate>, fillcolor="#399de5"] ;
42 -> 44 ;
45 [label=<Subsystem &le; 1.5<br/>gini = 0.006<br/>samples = 74608<br/>value = [74391, 217]<br/>class = Malware>, fillcolor="#e5813a"] ;
41 -> 45 ;
46 [label=<SizeOfCode &le; 131264.0<br/>gini = 0.494<br/>samples = 9<br/>value = [4, 5]<br/>class = Legitimate>, fillcolor="#d7ebfa"] ;
45 -> 46 ;
47 [label=<gini = 0.0<br/>samples = 4<br/>value = [4, 0]<br/>class = Malware>, fillcolor="#e58139"] ;
46 -> 47 ;
48 [label=<gini = 0.0<br/>samples = 5<br/>value = [0, 5]<br/>class = Legitimate>, fillcolor="#399de5"] ;
46 -> 48 ;
49 [label=<ImportsNb &le; 224.5<br/>gini = 0.006<br/>samples = 74599<br/>value = [74387, 212]<br/>class = Malware>, fillcolor="#e5813a"] ;
45 -> 49 ;
50 [label=<ResourcesMinEntropy &le; 3.173<br/>gini = 0.004<br/>samples = 72274<br/>value = [72142, 132]<br/>class = Malware>, fillcolor="#e58139"] ;
49 -> 50 ;
51 [label=<SectionsNb &le; 31.5<br/>gini = 0.003<br/>samples = 71372<br/>value = [71277, 95]<br/>class = Malware>, fillcolor="#e58139"] ;
50 -> 51 ;
52 [label=<SectionsMaxEntropy &le; 8.0<br/>gini = 0.003<br/>samples = 71371<br/>value = [71277, 94]<br/>class = Malware>, fillcolor="#e58139"] ;
51 -> 52 ;
53 [label=<SizeOfHeapReserve &le; 21120.0<br/>gini = 0.003<br/>samples = 71367<br/>value = [71275, 92]<br/>class = Malware>, fillcolor="#e58139"] ;
52 -> 53 ;
54 [label=<SectionsMaxEntropy &le; 6.469<br/>gini = 0.269<br/>samples = 25<br/>value = [21, 4]<br/>class = Malware>, fillcolor="#ea995f"] ;
53 -> 54 ;
55 [label=<gini = 0.0<br/>samples = 4<br/>value = [0, 4]<br/>class = Legitimate>, fillcolor="#399de5"] ;
54 -> 55 ;
56 [label=<gini = 0.0<br/>samples = 21<br/>value = [21, 0]<br/>class = Malware>, fillcolor="#e58139"] ;
54 -> 56 ;
57 [label=<VersionInformationSize &le; 15.5<br/>gini = 0.002<br/>samples = 71342<br/>value = [71254, 88]<br/>class = Malware>, fillcolor="#e58139"] ;
53 -> 57 ;
58 [label=<SectionsMinVirtualsize &le; 49143.5<br/>gini = 0.001<br/>samples = 63657<br/>value = [63627, 30]<br/>class = Malware>, fillcolor="#e58139"] ;
57 -> 58 ;
59 [label=<MinorImageVersion &le; 0.5<br/>gini = 0.001<br/>samples = 63502<br/>value = [63476, 26]<br/>class = Malware>, fillcolor="#e58139"] ;
58 -> 59 ;
60 [label=<ResourcesMaxEntropy &le; 8.0<br/>gini = 0.001<br/>samples = 63279<br/>value = [63257, 22]<br/>class = Malware>, fillcolor="#e58139"] ;
59 -> 60 ;
61 [label=<SectionsMeanRawsize &le; 1390515.188<br/>gini = 0.001<br/>samples = 63263<br/>value = [63242, 21]<br/>class = Malware>, fillcolor="#e58139"] ;
60 -> 61 ;
62 [label=<SizeOfImage &le; 206848.0<br/>gini = 0.001<br/>samples = 63244<br/>value = [63224, 20]<br/>class = Malware>, fillcolor="#e58139"] ;
61 -> 62 ;
63 [label=<ResourcesMeanEntropy &le; 5.825<br/>gini = 0.004<br/>samples = 8189<br/>value = [8173, 16]<br/>class = Malware>, fillcolor="#e58139"] ;
62 -> 63 ;
64 [label=<SizeOfImage &le; 202752.0<br/>gini = 0.003<br/>samples = 8160<br/>value = [8147, 13]<br/>class = Malware>, fillcolor="#e58139"] ;
63 -> 64 ;
65 [label=<SectionsMinVirtualsize &le; 28499.0<br/>gini = 0.002<br/>samples = 8106<br/>value = [8096, 10]<br/>class = Malware>, fillcolor="#e58139"] ;
64 -> 65 ;
66 [label=<SizeOfInitializedData &le; 121088.0<br/>gini = 0.002<br/>samples = 8090<br/>value = [8081, 9]<br/>class = Malware>, fillcolor="#e58139"] ;
65 -> 66 ;
67 [label=<ImportsNb &le; 168.0<br/>gini = 0.002<br/>samples = 8027<br/>value = [8020, 7]<br/>class = Malware>, fillcolor="#e58139"] ;
66 -> 67 ;
68 [label=<ResourcesMeanSize &le; 13865.083<br/>gini = 0.001<br/>samples = 8008<br/>value = [8002, 6]<br/>class = Malware>, fillcolor="#e58139"] ;
67 -> 68 ;
69 [label=<SectionMaxVirtualsize &le; 37522.0<br/>gini = 0.001<br/>samples = 7971<br/>value = [7966, 5]<br/>class = Malware>, fillcolor="#e58139"] ;
68 -> 69 ;
70 [label=<SectionMaxVirtualsize &le; 37482.0<br/>gini = 0.014<br/>samples = 433<br/>value = [430, 3]<br/>class = Malware>, fillcolor="#e5823a"] ;
69 -> 70 ;
71 [label=<CheckSum &le; 7004829.5<br/>gini = 0.009<br/>samples = 428<br/>value = [426.0, 2.0]<br/>class = Malware>, fillcolor="#e5823a"] ;
70 -> 71 ;
72 [label=<LoadConfigurationSize &le; 36.0<br/>gini = 0.005<br/>samples = 419<br/>value = [418, 1]<br/>class = Malware>, fillcolor="#e58139"] ;
71 -> 72 ;
73 [label=<gini = 0.0<br/>samples = 399<br/>value = [399, 0]<br/>class = Malware>, fillcolor="#e58139"] ;
72 -> 73 ;
74 [label=<AddressOfEntryPoint &le; 4825.0<br/>gini = 0.095<br/>samples = 20<br/>value = [19, 1]<br/>class = Malware>, fillcolor="#e68843"] ;
72 -> 74 ;
75 [label=<gini = 0.0<br/>samples = 1<br/>value = [0, 1]<br/>class = Legitimate>, fillcolor="#399de5"] ;
74 -> 75 ;
76 [label=<gini = 0.0<br/>samples = 19<br/>value = [19, 0]<br/>class = Malware>, fillcolor="#e58139"] ;
74 -> 76 ;
77 [label=<CheckSum &le; 7974048.5<br/>gini = 0.198<br/>samples = 9<br/>value = [8, 1]<br/>class = Malware>, fillcolor="#e89152"] ;
71 -> 77 ;
78 [label=<gini = 0.0<br/>samples = 1<br/>value = [0, 1]<br/>class = Legitimate>, fillcolor="#399de5"] ;
77 -> 78 ;
79 [label=<gini = 0.0<br/>samples = 8<br/>value = [8, 0]<br/>class = Malware>, fillcolor="#e58139"] ;
77 -> 79 ;
80 [label=<SectionsMaxEntropy &le; 6.538<br/>gini = 0.32<br/>samples = 5<br/>value = [4, 1]<br/>class = Malware>, fillcolor="#eca06a"] ;
70 -> 80 ;
81 [label=<gini = 0.0<br/>samples = 1<br/>value = [0, 1]<br/>class = Legitimate>, fillcolor="#399de5"] ;
80 -> 81 ;
82 [label=<gini = 0.0<br/>samples = 4<br/>value = [4, 0]<br/>class = Malware>, fillcolor="#e58139"] ;
80 -> 82 ;
83 [label=<SectionsMaxEntropy &le; 6.023<br/>gini = 0.001<br/>samples = 7538<br/>value = [7536.0, 2.0]<br/>class = Malware>, fillcolor="#e58139"] ;
69 -> 83 ;
84 [label=<LoadConfigurationSize &le; 36.0<br/>gini = 0.032<br/>samples = 62<br/>value = [61, 1]<br/>class = Malware>, fillcolor="#e5833c"] ;
83 -> 84 ;
85 [label=<gini = 0.0<br/>samples = 61<br/>value = [61, 0]<br/>class = Malware>, fillcolor="#e58139"] ;
84 -> 85 ;
86 [label=<gini = 0.0<br/>samples = 1<br/>value = [0, 1]<br/>class = Legitimate>, fillcolor="#399de5"] ;
84 -> 86 ;
87 [label=<SectionsMeanEntropy &le; 2.318<br/>gini = 0.0<br/>samples = 7476<br/>value = [7475.0, 1.0]<br/>class = Malware>, fillcolor="#e58139"] ;
83 -> 87 ;
88 [label=<SectionsMeanEntropy &le; 2.318<br/>gini = 0.006<br/>samples = 309<br/>value = [308, 1]<br/>class = Malware>, fillcolor="#e5813a"] ;
87 -> 88 ;
89 [label=<gini = 0.0<br/>samples = 308<br/>value = [308, 0]<br/>class = Malware>, fillcolor="#e58139"] ;
88 -> 89 ;
90 [label=<gini = 0.0<br/>samples = 1<br/>value = [0, 1]<br/>class = Legitimate>, fillcolor="#399de5"] ;
88 -> 90 ;
91 [label=<gini = 0.0<br/>samples = 7167<br/>value = [7167, 0]<br/>class = Malware>, fillcolor="#e58139"] ;
87 -> 91 ;
92 [label=<ImportsNbOrdinal &le; 0.5<br/>gini = 0.053<br/>samples = 37<br/>value = [36, 1]<br/>class = Malware>, fillcolor="#e6843e"] ;
68 -> 92 ;
93 [label=<gini = 0.0<br/>samples = 36<br/>value = [36, 0]<br/>class = Malware>, fillcolor="#e58139"] ;
92 -> 93 ;
94 [label=<gini = 0.0<br/>samples = 1<br/>value = [0, 1]<br/>class = Legitimate>, fillcolor="#399de5"] ;
92 -> 94 ;
95 [label=<MajorLinkerVersion &le; 5.5<br/>gini = 0.1<br/>samples = 19<br/>value = [18, 1]<br/>class = Malware>, fillcolor="#e68844"] ;
67 -> 95 ;
96 [label=<ImportsNb &le; 175.0<br/>gini = 0.5<br/>samples = 2<br/>value = [1, 1]<br/>class = Malware>, fillcolor="#ffffff"] ;
95 -> 96 ;
97 [label=<gini = 0.0<br/>samples = 1<br/>value = [0, 1]<br/>class = Legitimate>, fillcolor="#399de5"] ;
96 -> 97 ;
98 [label=<gini = 0.0<br/>samples = 1<br/>value = [1, 0]<br/>class = Malware>, fillcolor="#e58139"] ;
96 -> 98 ;
99 [label=<gini = 0.0<br/>samples = 17<br/>value = [17, 0]<br/>class = Malware>, fillcolor="#e58139"] ;
95 -> 99 ;
100 [label=<CheckSum &le; 1148559.0<br/>gini = 0.061<br/>samples = 63<br/>value = [61, 2]<br/>class = Malware>, fillcolor="#e6853f"] ;
66 -> 100 ;
101 [label=<gini = 0.0<br/>samples = 60<br/>value = [60, 0]<br/>class = Malware>, fillcolor="#e58139"] ;
100 -> 101 ;
102 [label=<ImportsNbDLL &le; 3.0<br/>gini = 0.444<br/>samples = 3<br/>value = [1, 2]<br/>class = Legitimate>, fillcolor="#9ccef2"] ;
100 -> 102 ;
103 [label=<gini = 0.0<br/>samples = 2<br/>value = [0, 2]<br/>class = Legitimate>, fillcolor="#399de5"] ;
102 -> 103 ;
104 [label=<gini = 0.0<br/>samples = 1<br/>value = [1, 0]<br/>class = Malware>, fillcolor="#e58139"] ;
102 -> 104 ;
105 [label=<ResourcesMinSize &le; 104.0<br/>gini = 0.117<br/>samples = 16<br/>value = [15, 1]<br/>class = Malware>, fillcolor="#e78946"] ;
65 -> 105 ;
106 [label=<gini = 0.0<br/>samples = 15<br/>value = [15, 0]<br/>class = Malware>, fillcolor="#e58139"] ;
105 -> 106 ;
107 [label=<gini = 0.0<br/>samples = 1<br/>value = [0, 1]<br/>class = Legitimate>, fillcolor="#399de5"] ;
105 -> 107 ;
108 [label=<ResourcesNb &le; 36.0<br/>gini = 0.105<br/>samples = 54<br/>value = [51, 3]<br/>class = Malware>, fillcolor="#e78845"] ;
64 -> 108 ;
109 [label=<SectionsMeanEntropy &le; 4.426<br/>gini = 0.073<br/>samples = 53<br/>value = [51, 2]<br/>class = Malware>, fillcolor="#e68641"] ;
108 -> 109 ;
110 [label=<gini = 0.0<br/>samples = 42<br/>value = [42, 0]<br/>class = Malware>, fillcolor="#e58139"] ;
109 -> 110 ;
111 [label=<ResourcesMeanSize &le; 1187.288<br/>gini = 0.298<br/>samples = 11<br/>value = [9, 2]<br/>class = Malware>, fillcolor="#eb9d65"] ;
109 -> 111 ;
112 [label=<SectionsMaxEntropy &le; 6.438<br/>gini = 0.444<br/>samples = 3<br/>value = [1, 2]<br/>class = Legitimate>, fillcolor="#9ccef2"] ;
111 -> 112 ;
113 [label=<gini = 0.0<br/>samples = 2<br/>value = [0, 2]<br/>class = Legitimate>, fillcolor="#399de5"] ;
112 -> 113 ;
114 [label=<gini = 0.0<br/>samples = 1<br/>value = [1, 0]<br/>class = Malware>, fillcolor="#e58139"] ;
112 -> 114 ;
115 [label=<gini = 0.0<br/>samples = 8<br/>value = [8, 0]<br/>class = Malware>, fillcolor="#e58139"] ;
111 -> 115 ;
116 [label=<gini = 0.0<br/>samples = 1<br/>value = [0, 1]<br/>class = Legitimate>, fillcolor="#399de5"] ;
108 -> 116 ;
117 [label=<ImportsNb &le; 96.5<br/>gini = 0.185<br/>samples = 29<br/>value = [26, 3]<br/>class = Malware>, fillcolor="#e89050"] ;
63 -> 117 ;
118 [label=<gini = 0.0<br/>samples = 26<br/>value = [26, 0]<br/>class = Malware>, fillcolor="#e58139"] ;
117 -> 118 ;
119 [label=<gini = 0.0<br/>samples = 3<br/>value = [0, 3]<br/>class = Legitimate>, fillcolor="#399de5"] ;
117 -> 119 ;
120 [label=<SizeOfCode &le; 9984.0<br/>gini = 0.0<br/>samples = 55055<br/>value = [55051, 4]<br/>class = Malware>, fillcolor="#e58139"] ;
62 -> 120 ;
121 [label=<SizeOfCode &le; 9472.0<br/>gini = 0.01<br/>samples = 209<br/>value = [208, 1]<br/>class = Malware>, fillcolor="#e5823a"] ;
120 -> 121 ;
122 [label=<gini = 0.0<br/>samples = 208<br/>value = [208, 0]<br/>class = Malware>, fillcolor="#e58139"] ;
121 -> 122 ;
123 [label=<gini = 0.0<br/>samples = 1<br/>value = [0, 1]<br/>class = Legitimate>, fillcolor="#399de5"] ;
121 -> 123 ;
124 [label=<ResourcesMeanSize &le; 1428.801<br/>gini = 0.0<br/>samples = 54846<br/>value = [54843, 3]<br/>class = Malware>, fillcolor="#e58139"] ;
120 -> 124 ;
125 [label=<ResourcesMeanSize &le; 1427.152<br/>gini = 0.002<br/>samples = 3099<br/>value = [3096, 3]<br/>class = Malware>, fillcolor="#e58139"] ;
124 -> 125 ;
126 [label=<ResourcesMaxEntropy &le; 5.27<br/>gini = 0.001<br/>samples = 3098<br/>value = [3096.0, 2.0]<br/>class = Malware>, fillcolor="#e58139"] ;
125 -> 126 ;
127 [label=<gini = 0.0<br/>samples = 2565<br/>value = [2565, 0]<br/>class = Malware>, fillcolor="#e58139"] ;
126 -> 127 ;
128 [label=<ResourcesMaxEntropy &le; 5.285<br/>gini = 0.007<br/>samples = 533<br/>value = [531, 2]<br/>class = Malware>, fillcolor="#e5813a"] ;
126 -> 128 ;
129 [label=<gini = 0.0<br/>samples = 1<br/>value = [0, 1]<br/>class = Legitimate>, fillcolor="#399de5"] ;
128 -> 129 ;
130 [label=<SizeOfImage &le; 243712.0<br/>gini = 0.004<br/>samples = 532<br/>value = [531, 1]<br/>class = Malware>, fillcolor="#e58139"] ;
128 -> 130 ;
131 [label=<SizeOfImage &le; 239616.0<br/>gini = 0.053<br/>samples = 37<br/>value = [36, 1]<br/>class = Malware>, fillcolor="#e6843e"] ;
130 -> 131 ;
132 [label=<gini = 0.0<br/>samples = 35<br/>value = [35, 0]<br/>class = Malware>, fillcolor="#e58139"] ;
131 -> 132 ;
133 [label=<SectionsMinVirtualsize &le; 4630.0<br/>gini = 0.5<br/>samples = 2<br/>value = [1, 1]<br/>class = Malware>, fillcolor="#ffffff"] ;
131 -> 133 ;
134 [label=<gini = 0.0<br/>samples = 1<br/>value = [1, 0]<br/>class = Malware>, fillcolor="#e58139"] ;
133 -> 134 ;
135 [label=<gini = 0.0<br/>samples = 1<br/>value = [0, 1]<br/>class = Legitimate>, fillcolor="#399de5"] ;
133 -> 135 ;
136 [label=<gini = 0.0<br/>samples = 495<br/>value = [495, 0]<br/>class = Malware>, fillcolor="#e58139"] ;
130 -> 136 ;
137 [label=<gini = 0.0<br/>samples = 1<br/>value = [0, 1]<br/>class = Legitimate>, fillcolor="#399de5"] ;
125 -> 137 ;
138 [label=<gini = 0.0<br/>samples = 51747<br/>value = [51747, 0]<br/>class = Malware>, fillcolor="#e58139"] ;
124 -> 138 ;
139 [label=<ResourcesNb &le; 170.0<br/>gini = 0.1<br/>samples = 19<br/>value = [18, 1]<br/>class = Malware>, fillcolor="#e68844"] ;
61 -> 139 ;
140 [label=<gini = 0.0<br/>samples = 18<br/>value = [18, 0]<br/>class = Malware>, fillcolor="#e58139"] ;
139 -> 140 ;
141 [label=<gini = 0.0<br/>samples = 1<br/>value = [0, 1]<br/>class = Legitimate>, fillcolor="#399de5"] ;
139 -> 141 ;
142 [label=<SizeOfInitializedData &le; 1612032.0<br/>gini = 0.117<br/>samples = 16<br/>value = [15, 1]<br/>class = Malware>, fillcolor="#e78946"] ;
60 -> 142 ;
143 [label=<gini = 0.0<br/>samples = 1<br/>value = [0, 1]<br/>class = Legitimate>, fillcolor="#399de5"] ;
142 -> 143 ;
144 [label=<gini = 0.0<br/>samples = 15<br/>value = [15, 0]<br/>class = Malware>, fillcolor="#e58139"] ;
142 -> 144 ;
145 [label=<ResourcesNb &le; 36.5<br/>gini = 0.035<br/>samples = 223<br/>value = [219, 4]<br/>class = Malware>, fillcolor="#e5833d"] ;
59 -> 145 ;
146 [label=<gini = 0.0<br/>samples = 217<br/>value = [217, 0]<br/>class = Malware>, fillcolor="#e58139"] ;
145 -> 146 ;
147 [label=<SectionsMinRawsize &le; 2696.0<br/>gini = 0.444<br/>samples = 6<br/>value = [2, 4]<br/>class = Legitimate>, fillcolor="#9ccef2"] ;
145 -> 147 ;
148 [label=<gini = 0.0<br/>samples = 4<br/>value = [0, 4]<br/>class = Legitimate>, fillcolor="#399de5"] ;
147 -> 148 ;
149 [label=<gini = 0.0<br/>samples = 2<br/>value = [2, 0]<br/>class = Malware>, fillcolor="#e58139"] ;
147 -> 149 ;
150 [label=<CheckSum &le; 12491800.5<br/>gini = 0.05<br/>samples = 155<br/>value = [151, 4]<br/>class = Malware>, fillcolor="#e6843e"] ;
58 -> 150 ;
151 [label=<gini = 0.0<br/>samples = 150<br/>value = [150, 0]<br/>class = Malware>, fillcolor="#e58139"] ;
150 -> 151 ;
152 [label=<SectionMaxRawsize &le; 11768576.0<br/>gini = 0.32<br/>samples = 5<br/>value = [1, 4]<br/>class = Legitimate>, fillcolor="#6ab6ec"] ;
150 -> 152 ;
153 [label=<gini = 0.0<br/>samples = 4<br/>value = [0, 4]<br/>class = Legitimate>, fillcolor="#399de5"] ;
152 -> 153 ;
154 [label=<gini = 0.0<br/>samples = 1<br/>value = [1, 0]<br/>class = Malware>, fillcolor="#e58139"] ;
152 -> 154 ;
155 [label=<SectionsMinEntropy &le; 2.369<br/>gini = 0.015<br/>samples = 7685<br/>value = [7627, 58]<br/>class = Malware>, fillcolor="#e5823b"] ;
57 -> 155 ;
156 [label=<SectionsMaxEntropy &le; 6.547<br/>gini = 0.007<br/>samples = 7244<br/>value = [7220, 24]<br/>class = Malware>, fillcolor="#e5813a"] ;
155 -> 156 ;
157 [label=<LoadConfigurationSize &le; 36.0<br/>gini = 0.123<br/>samples = 227<br/>value = [212, 15]<br/>class = Malware>, fillcolor="#e78a47"] ;
156 -> 157 ;
158 [label=<SectionsMinVirtualsize &le; 6620.0<br/>gini = 0.103<br/>samples = 221<br/>value = [209, 12]<br/>class = Malware>, fillcolor="#e68844"] ;
157 -> 158 ;
159 [label=<SizeOfStackReserve &le; 393216.0<br/>gini = 0.08<br/>samples = 216<br/>value = [207, 9]<br/>class = Malware>, fillcolor="#e68642"] ;
158 -> 159 ;
160 [label=<MinorOperatingSystemVersion &le; 0.5<br/>gini = 0.5<br/>samples = 4<br/>value = [2, 2]<br/>class = Malware>, fillcolor="#ffffff"] ;
159 -> 160 ;
161 [label=<gini = 0.0<br/>samples = 2<br/>value = [2, 0]<br/>class = Malware>, fillcolor="#e58139"] ;
160 -> 161 ;
162 [label=<gini = 0.0<br/>samples = 2<br/>value = [0, 2]<br/>class = Legitimate>, fillcolor="#399de5"] ;
160 -> 162 ;
163 [label=<SizeOfInitializedData &le; 6912.0<br/>gini = 0.064<br/>samples = 212<br/>value = [205, 7]<br/>class = Malware>, fillcolor="#e68540"] ;
159 -> 163 ;
164 [label=<SizeOfInitializedData &le; 4864.0<br/>gini = 0.375<br/>samples = 12<br/>value = [9, 3]<br/>class = Malware>, fillcolor="#eeab7b"] ;
163 -> 164 ;
165 [label=<gini = 0.0<br/>samples = 9<br/>value = [9, 0]<br/>class = Malware>, fillcolor="#e58139"] ;
164 -> 165 ;
166 [label=<gini = 0.0<br/>samples = 3<br/>value = [0, 3]<br/>class = Legitimate>, fillcolor="#399de5"] ;
164 -> 166 ;
167 [label=<SizeOfInitializedData &le; 184576.0<br/>gini = 0.039<br/>samples = 200<br/>value = [196, 4]<br/>class = Malware>, fillcolor="#e6843d"] ;
163 -> 167 ;
168 [label=<gini = 0.0<br/>samples = 161<br/>value = [161, 0]<br/>class = Malware>, fillcolor="#e58139"] ;
167 -> 168 ;
169 [label=<SectionMaxVirtualsize &le; 184236.0<br/>gini = 0.184<br/>samples = 39<br/>value = [35, 4]<br/>class = Malware>, fillcolor="#e88f50"] ;
167 -> 169 ;
170 [label=<gini = 0.0<br/>samples = 3<br/>value = [0, 3]<br/>class = Legitimate>, fillcolor="#399de5"] ;
169 -> 170 ;
171 [label=<SectionsMeanEntropy &le; 2.654<br/>gini = 0.054<br/>samples = 36<br/>value = [35, 1]<br/>class = Malware>, fillcolor="#e6853f"] ;
169 -> 171 ;
172 [label=<SizeOfInitializedData &le; 374016.0<br/>gini = 0.444<br/>samples = 3<br/>value = [2, 1]<br/>class = Malware>, fillcolor="#f2c09c"] ;
171 -> 172 ;
173 [label=<gini = 0.0<br/>samples = 2<br/>value = [2, 0]<br/>class = Malware>, fillcolor="#e58139"] ;
172 -> 173 ;
174 [label=<gini = 0.0<br/>samples = 1<br/>value = [0, 1]<br/>class = Legitimate>, fillcolor="#399de5"] ;
172 -> 174 ;
175 [label=<gini = 0.0<br/>samples = 33<br/>value = [33, 0]<br/>class = Malware>, fillcolor="#e58139"] ;
171 -> 175 ;
176 [label=<SectionsMeanRawsize &le; 13516.8<br/>gini = 0.48<br/>samples = 5<br/>value = [2, 3]<br/>class = Legitimate>, fillcolor="#bddef6"] ;
158 -> 176 ;
177 [label=<gini = 0.0<br/>samples = 3<br/>value = [0, 3]<br/>class = Legitimate>, fillcolor="#399de5"] ;
176 -> 177 ;
178 [label=<gini = 0.0<br/>samples = 2<br/>value = [2, 0]<br/>class = Malware>, fillcolor="#e58139"] ;
176 -> 178 ;
179 [label=<ResourcesMinSize &le; 54.0<br/>gini = 0.5<br/>samples = 6<br/>value = [3, 3]<br/>class = Malware>, fillcolor="#ffffff"] ;
157 -> 179 ;
180 [label=<gini = 0.0<br/>samples = 3<br/>value = [3, 0]<br/>class = Malware>, fillcolor="#e58139"] ;
179 -> 180 ;
181 [label=<gini = 0.0<br/>samples = 3<br/>value = [0, 3]<br/>class = Legitimate>, fillcolor="#399de5"] ;
179 -> 181 ;
182 [label=<CheckSum &le; 8085469.5<br/>gini = 0.003<br/>samples = 7017<br/>value = [7008, 9]<br/>class = Malware>, fillcolor="#e58139"] ;
156 -> 182 ;
183 [label=<SizeOfCode &le; 768.0<br/>gini = 0.001<br/>samples = 6996<br/>value = [6991, 5]<br/>class = Malware>, fillcolor="#e58139"] ;
182 -> 183 ;
184 [label=<SectionsMinVirtualsize &le; 1668.0<br/>gini = 0.444<br/>samples = 3<br/>value = [2, 1]<br/>class = Malware>, fillcolor="#f2c09c"] ;
183 -> 184 ;
185 [label=<gini = 0.0<br/>samples = 1<br/>value = [0, 1]<br/>class = Legitimate>, fillcolor="#399de5"] ;
184 -> 185 ;
186 [label=<gini = 0.0<br/>samples = 2<br/>value = [2, 0]<br/>class = Malware>, fillcolor="#e58139"] ;
184 -> 186 ;
187 [label=<SectionsMeanVirtualsize &le; 27096.7<br/>gini = 0.001<br/>samples = 6993<br/>value = [6989, 4]<br/>class = Malware>, fillcolor="#e58139"] ;
183 -> 187 ;
188 [label=<SectionsMinEntropy &le; 2.204<br/>gini = 0.066<br/>samples = 88<br/>value = [85, 3]<br/>class = Malware>, fillcolor="#e68540"] ;
187 -> 188 ;
189 [label=<SectionsMeanRawsize &le; 27136.0<br/>gini = 0.023<br/>samples = 86<br/>value = [85, 1]<br/>class = Malware>, fillcolor="#e5823b"] ;
188 -> 189 ;
190 [label=<gini = 0.0<br/>samples = 85<br/>value = [85, 0]<br/>class = Malware>, fillcolor="#e58139"] ;
189 -> 190 ;
191 [label=<gini = 0.0<br/>samples = 1<br/>value = [0, 1]<br/>class = Legitimate>, fillcolor="#399de5"] ;
189 -> 191 ;
192 [label=<gini = 0.0<br/>samples = 2<br/>value = [0, 2]<br/>class = Legitimate>, fillcolor="#399de5"] ;
188 -> 192 ;
193 [label=<ResourcesMeanEntropy &le; 6.133<br/>gini = 0.0<br/>samples = 6905<br/>value = [6904.0, 1.0]<br/>class = Malware>, fillcolor="#e58139"] ;
187 -> 193 ;
194 [label=<gini = 0.0<br/>samples = 6844<br/>value = [6844, 0]<br/>class = Malware>, fillcolor="#e58139"] ;
193 -> 194 ;
195 [label=<ResourcesMeanEntropy &le; 6.136<br/>gini = 0.032<br/>samples = 61<br/>value = [60, 1]<br/>class = Malware>, fillcolor="#e5833c"] ;
193 -> 195 ;
196 [label=<gini = 0.0<br/>samples = 1<br/>value = [0, 1]<br/>class = Legitimate>, fillcolor="#399de5"] ;
195 -> 196 ;
197 [label=<gini = 0.0<br/>samples = 60<br/>value = [60, 0]<br/>class = Malware>, fillcolor="#e58139"] ;
195 -> 197 ;
198 [label=<SectionsMinVirtualsize &le; 26088.0<br/>gini = 0.308<br/>samples = 21<br/>value = [17, 4]<br/>class = Malware>, fillcolor="#eb9f68"] ;
182 -> 198 ;
199 [label=<gini = 0.0<br/>samples = 16<br/>value = [16, 0]<br/>class = Malware>, fillcolor="#e58139"] ;
198 -> 199 ;
200 [label=<ResourcesMeanSize &le; 1493.298<br/>gini = 0.32<br/>samples = 5<br/>value = [1, 4]<br/>class = Legitimate>, fillcolor="#6ab6ec"] ;
198 -> 200 ;
201 [label=<gini = 0.0<br/>samples = 1<br/>value = [1, 0]<br/>class = Malware>, fillcolor="#e58139"] ;
200 -> 201 ;
202 [label=<gini = 0.0<br/>samples = 4<br/>value = [0, 4]<br/>class = Legitimate>, fillcolor="#399de5"] ;
200 -> 202 ;
203 [label=<ResourcesNb &le; 57.5<br/>gini = 0.142<br/>samples = 441<br/>value = [407, 34]<br/>class = Malware>, fillcolor="#e78c4a"] ;
155 -> 203 ;
204 [label=<SectionsMeanVirtualsize &le; 11078.8<br/>gini = 0.089<br/>samples = 406<br/>value = [387, 19]<br/>class = Malware>, fillcolor="#e68743"] ;
203 -> 204 ;
205 [label=<gini = 0.0<br/>samples = 2<br/>value = [0, 2]<br/>class = Legitimate>, fillcolor="#399de5"] ;
204 -> 205 ;
206 [label=<SectionsNb &le; 4.5<br/>gini = 0.081<br/>samples = 404<br/>value = [387, 17]<br/>class = Malware>, fillcolor="#e68742"] ;
204 -> 206 ;
207 [label=<ResourcesMaxEntropy &le; 7.998<br/>gini = 0.031<br/>samples = 316<br/>value = [311, 5]<br/>class = Malware>, fillcolor="#e5833c"] ;
206 -> 207 ;
208 [label=<ResourcesMeanSize &le; 281.145<br/>gini = 0.025<br/>samples = 315<br/>value = [311, 4]<br/>class = Malware>, fillcolor="#e5833c"] ;
207 -> 208 ;
209 [label=<gini = 0.0<br/>samples = 1<br/>value = [0, 1]<br/>class = Legitimate>, fillcolor="#399de5"] ;
208 -> 209 ;
210 [label=<CheckSum &le; 3715035.0<br/>gini = 0.019<br/>samples = 314<br/>value = [311, 3]<br/>class = Malware>, fillcolor="#e5823b"] ;
208 -> 210 ;
211 [label=<ResourcesMeanEntropy &le; 1.073<br/>gini = 0.013<br/>samples = 312<br/>value = [310, 2]<br/>class = Malware>, fillcolor="#e5823a"] ;
210 -> 211 ;
212 [label=<BaseOfData &le; 47104.0<br/>gini = 0.375<br/>samples = 4<br/>value = [3, 1]<br/>class = Malware>, fillcolor="#eeab7b"] ;
211 -> 212 ;
213 [label=<gini = 0.0<br/>samples = 1<br/>value = [0, 1]<br/>class = Legitimate>, fillcolor="#399de5"] ;
212 -> 213 ;
214 [label=<gini = 0.0<br/>samples = 3<br/>value = [3, 0]<br/>class = Malware>, fillcolor="#e58139"] ;
212 -> 214 ;
215 [label=<AddressOfEntryPoint &le; 145273.5<br/>gini = 0.006<br/>samples = 308<br/>value = [307, 1]<br/>class = Malware>, fillcolor="#e5813a"] ;
211 -> 215 ;
216 [label=<gini = 0.0<br/>samples = 301<br/>value = [301, 0]<br/>class = Malware>, fillcolor="#e58139"] ;
215 -> 216 ;
217 [label=<SectionsMaxEntropy &le; 6.584<br/>gini = 0.245<br/>samples = 7<br/>value = [6, 1]<br/>class = Malware>, fillcolor="#e9965a"] ;
215 -> 217 ;
218 [label=<gini = 0.0<br/>samples = 1<br/>value = [0, 1]<br/>class = Legitimate>, fillcolor="#399de5"] ;
217 -> 218 ;
219 [label=<gini = 0.0<br/>samples = 6<br/>value = [6, 0]<br/>class = Malware>, fillcolor="#e58139"] ;
217 -> 219 ;
220 [label=<SectionMaxRawsize &le; 77312.0<br/>gini = 0.5<br/>samples = 2<br/>value = [1, 1]<br/>class = Malware>, fillcolor="#ffffff"] ;
210 -> 220 ;
221 [label=<gini = 0.0<br/>samples = 1<br/>value = [0, 1]<br/>class = Legitimate>, fillcolor="#399de5"] ;
220 -> 221 ;
222 [label=<gini = 0.0<br/>samples = 1<br/>value = [1, 0]<br/>class = Malware>, fillcolor="#e58139"] ;
220 -> 222 ;
223 [label=<gini = 0.0<br/>samples = 1<br/>value = [0, 1]<br/>class = Legitimate>, fillcolor="#399de5"] ;
207 -> 223 ;
224 [label=<SizeOfInitializedData &le; 98304.0<br/>gini = 0.236<br/>samples = 88<br/>value = [76, 12]<br/>class = Malware>, fillcolor="#e99558"] ;
206 -> 224 ;
225 [label=<ImportsNb &le; 138.5<br/>gini = 0.422<br/>samples = 33<br/>value = [23, 10]<br/>class = Malware>, fillcolor="#f0b88f"] ;
224 -> 225 ;
226 [label=<CheckSum &le; 12495619.5<br/>gini = 0.087<br/>samples = 22<br/>value = [21, 1]<br/>class = Malware>, fillcolor="#e68742"] ;
225 -> 226 ;
227 [label=<gini = 0.0<br/>samples = 21<br/>value = [21, 0]<br/>class = Malware>, fillcolor="#e58139"] ;
226 -> 227 ;
228 [label=<gini = 0.0<br/>samples = 1<br/>value = [0, 1]<br/>class = Legitimate>, fillcolor="#399de5"] ;
226 -> 228 ;
229 [label=<CheckSum &le; 58083.5<br/>gini = 0.298<br/>samples = 11<br/>value = [2, 9]<br/>class = Legitimate>, fillcolor="#65b3eb"] ;
225 -> 229 ;
230 [label=<gini = 0.0<br/>samples = 2<br/>value = [2, 0]<br/>class = Malware>, fillcolor="#e58139"] ;
229 -> 230 ;
231 [label=<gini = 0.0<br/>samples = 9<br/>value = [0, 9]<br/>class = Legitimate>, fillcolor="#399de5"] ;
229 -> 231 ;
232 [label=<MajorLinkerVersion &le; 10.5<br/>gini = 0.07<br/>samples = 55<br/>value = [53, 2]<br/>class = Malware>, fillcolor="#e68640"] ;
224 -> 232 ;
233 [label=<gini = 0.0<br/>samples = 49<br/>value = [49, 0]<br/>class = Malware>, fillcolor="#e58139"] ;
232 -> 233 ;
234 [label=<SizeOfInitializedData &le; 226304.0<br/>gini = 0.444<br/>samples = 6<br/>value = [4, 2]<br/>class = Malware>, fillcolor="#f2c09c"] ;
232 -> 234 ;
235 [label=<gini = 0.0<br/>samples = 2<br/>value = [0, 2]<br/>class = Legitimate>, fillcolor="#399de5"] ;
234 -> 235 ;
236 [label=<gini = 0.0<br/>samples = 4<br/>value = [4, 0]<br/>class = Malware>, fillcolor="#e58139"] ;
234 -> 236 ;
237 [label=<SectionsMinEntropy &le; 3.5<br/>gini = 0.49<br/>samples = 35<br/>value = [20, 15]<br/>class = Malware>, fillcolor="#f8e0ce"] ;
203 -> 237 ;
238 [label=<AddressOfEntryPoint &le; 107316.5<br/>gini = 0.278<br/>samples = 18<br/>value = [3, 15]<br/>class = Legitimate>, fillcolor="#61b1ea"] ;
237 -> 238 ;
239 [label=<SectionMaxRawsize &le; 1972736.0<br/>gini = 0.117<br/>samples = 16<br/>value = [1, 15]<br/>class = Legitimate>, fillcolor="#46a4e7"] ;
238 -> 239 ;
240 [label=<gini = 0.0<br/>samples = 15<br/>value = [0, 15]<br/>class = Legitimate>, fillcolor="#399de5"] ;
239 -> 240 ;
241 [label=<gini = 0.0<br/>samples = 1<br/>value = [1, 0]<br/>class = Malware>, fillcolor="#e58139"] ;
239 -> 241 ;
242 [label=<gini = 0.0<br/>samples = 2<br/>value = [2, 0]<br/>class = Malware>, fillcolor="#e58139"] ;
238 -> 242 ;
243 [label=<gini = 0.0<br/>samples = 17<br/>value = [17, 0]<br/>class = Malware>, fillcolor="#e58139"] ;
237 -> 243 ;
244 [label=<SizeOfUninitializedData &le; 3348480.0<br/>gini = 0.5<br/>samples = 4<br/>value = [2, 2]<br/>class = Malware>, fillcolor="#ffffff"] ;
52 -> 244 ;
245 [label=<gini = 0.0<br/>samples = 2<br/>value = [0, 2]<br/>class = Legitimate>, fillcolor="#399de5"] ;
244 -> 245 ;
246 [label=<gini = 0.0<br/>samples = 2<br/>value = [2, 0]<br/>class = Malware>, fillcolor="#e58139"] ;
244 -> 246 ;
247 [label=<gini = 0.0<br/>samples = 1<br/>value = [0, 1]<br/>class = Legitimate>, fillcolor="#399de5"] ;
51 -> 247 ;
248 [label=<CheckSum &le; 58896.0<br/>gini = 0.079<br/>samples = 902<br/>value = [865, 37]<br/>class = Malware>, fillcolor="#e68641"] ;
50 -> 248 ;
249 [label=<gini = 0.0<br/>samples = 710<br/>value = [710, 0]<br/>class = Malware>, fillcolor="#e58139"] ;
248 -> 249 ;
250 [label=<SectionMaxVirtualsize &le; 78021.5<br/>gini = 0.311<br/>samples = 192<br/>value = [155, 37]<br/>class = Malware>, fillcolor="#eb9f68"] ;
248 -> 250 ;
251 [label=<ResourcesMeanEntropy &le; 4.152<br/>gini = 0.472<br/>samples = 42<br/>value = [16, 26]<br/>class = Legitimate>, fillcolor="#b3d9f5"] ;
250 -> 251 ;
252 [label=<ResourcesMaxSize &le; 1302.0<br/>gini = 0.165<br/>samples = 22<br/>value = [2, 20]<br/>class = Legitimate>, fillcolor="#4da7e8"] ;
251 -> 252 ;
253 [label=<gini = 0.0<br/>samples = 20<br/>value = [0, 20]<br/>class = Legitimate>, fillcolor="#399de5"] ;
252 -> 253 ;
254 [label=<gini = 0.0<br/>samples = 2<br/>value = [2, 0]<br/>class = Malware>, fillcolor="#e58139"] ;
252 -> 254 ;
255 [label=<MinorOperatingSystemVersion &le; 0.5<br/>gini = 0.42<br/>samples = 20<br/>value = [14, 6]<br/>class = Malware>, fillcolor="#f0b78e"] ;
251 -> 255 ;
256 [label=<ResourcesMinSize &le; 598.0<br/>gini = 0.291<br/>samples = 17<br/>value = [14, 3]<br/>class = Malware>, fillcolor="#eb9c63"] ;
255 -> 256 ;
257 [label=<MajorLinkerVersion &le; 10.0<br/>gini = 0.124<br/>samples = 15<br/>value = [14, 1]<br/>class = Malware>, fillcolor="#e78a47"] ;
256 -> 257 ;
258 [label=<gini = 0.0<br/>samples = 13<br/>value = [13, 0]<br/>class = Malware>, fillcolor="#e58139"] ;
257 -> 258 ;
259 [label=<SizeOfCode &le; 55040.0<br/>gini = 0.5<br/>samples = 2<br/>value = [1, 1]<br/>class = Malware>, fillcolor="#ffffff"] ;
257 -> 259 ;
260 [label=<gini = 0.0<br/>samples = 1<br/>value = [0, 1]<br/>class = Legitimate>, fillcolor="#399de5"] ;
259 -> 260 ;
261 [label=<gini = 0.0<br/>samples = 1<br/>value = [1, 0]<br/>class = Malware>, fillcolor="#e58139"] ;
259 -> 261 ;
262 [label=<gini = 0.0<br/>samples = 2<br/>value = [0, 2]<br/>class = Legitimate>, fillcolor="#399de5"] ;
256 -> 262 ;
263 [label=<gini = 0.0<br/>samples = 3<br/>value = [0, 3]<br/>class = Legitimate>, fillcolor="#399de5"] ;
255 -> 263 ;
264 [label=<VersionInformationSize &le; 16.5<br/>gini = 0.136<br/>samples = 150<br/>value = [139, 11]<br/>class = Malware>, fillcolor="#e78b49"] ;
250 -> 264 ;
265 [label=<ImportsNb &le; 148.5<br/>gini = 0.03<br/>samples = 131<br/>value = [129, 2]<br/>class = Malware>, fillcolor="#e5833c"] ;
264 -> 265 ;
266 [label=<gini = 0.0<br/>samples = 123<br/>value = [123, 0]<br/>class = Malware>, fillcolor="#e58139"] ;
265 -> 266 ;
267 [label=<ResourcesMeanEntropy &le; 3.916<br/>gini = 0.375<br/>samples = 8<br/>value = [6, 2]<br/>class = Malware>, fillcolor="#eeab7b"] ;
265 -> 267 ;
268 [label=<gini = 0.0<br/>samples = 2<br/>value = [0, 2]<br/>class = Legitimate>, fillcolor="#399de5"] ;
267 -> 268 ;
269 [label=<gini = 0.0<br/>samples = 6<br/>value = [6, 0]<br/>class = Malware>, fillcolor="#e58139"] ;
267 -> 269 ;
270 [label=<SectionsMaxEntropy &le; 6.872<br/>gini = 0.499<br/>samples = 19<br/>value = [10, 9]<br/>class = Malware>, fillcolor="#fcf2eb"] ;
264 -> 270 ;
271 [label=<MajorLinkerVersion &le; 6.5<br/>gini = 0.298<br/>samples = 11<br/>value = [2, 9]<br/>class = Legitimate>, fillcolor="#65b3eb"] ;
270 -> 271 ;
272 [label=<gini = 0.0<br/>samples = 2<br/>value = [2, 0]<br/>class = Malware>, fillcolor="#e58139"] ;
271 -> 272 ;
273 [label=<gini = 0.0<br/>samples = 9<br/>value = [0, 9]<br/>class = Legitimate>, fillcolor="#399de5"] ;
271 -> 273 ;
274 [label=<gini = 0.0<br/>samples = 8<br/>value = [8, 0]<br/>class = Malware>, fillcolor="#e58139"] ;
270 -> 274 ;
275 [label=<VersionInformationSize &le; 18.5<br/>gini = 0.066<br/>samples = 2325<br/>value = [2245, 80]<br/>class = Malware>, fillcolor="#e68540"] ;
49 -> 275 ;
276 [label=<ResourcesNb &le; 87.5<br/>gini = 0.053<br/>samples = 2291<br/>value = [2228, 63]<br/>class = Malware>, fillcolor="#e6853f"] ;
275 -> 276 ;
277 [label=<SectionsMaxEntropy &le; 6.326<br/>gini = 0.046<br/>samples = 2262<br/>value = [2209, 53]<br/>class = Malware>, fillcolor="#e6843e"] ;
276 -> 277 ;
278 [label=<SectionsMinVirtualsize &le; 5292.0<br/>gini = 0.435<br/>samples = 25<br/>value = [17, 8]<br/>class = Malware>, fillcolor="#f1bc96"] ;
277 -> 278 ;
279 [label=<SectionsNb &le; 3.5<br/>gini = 0.308<br/>samples = 21<br/>value = [17, 4]<br/>class = Malware>, fillcolor="#eb9f68"] ;
278 -> 279 ;
280 [label=<BaseOfData &le; 110592.0<br/>gini = 0.444<br/>samples = 6<br/>value = [2, 4]<br/>class = Legitimate>, fillcolor="#9ccef2"] ;
279 -> 280 ;
281 [label=<gini = 0.0<br/>samples = 4<br/>value = [0, 4]<br/>class = Legitimate>, fillcolor="#399de5"] ;
280 -> 281 ;
282 [label=<gini = 0.0<br/>samples = 2<br/>value = [2, 0]<br/>class = Malware>, fillcolor="#e58139"] ;
280 -> 282 ;
283 [label=<gini = 0.0<br/>samples = 15<br/>value = [15, 0]<br/>class = Malware>, fillcolor="#e58139"] ;
279 -> 283 ;
284 [label=<gini = 0.0<br/>samples = 4<br/>value = [0, 4]<br/>class = Legitimate>, fillcolor="#399de5"] ;
278 -> 284 ;
285 [label=<ResourcesMaxEntropy &le; 5.508<br/>gini = 0.039<br/>samples = 2237<br/>value = [2192, 45]<br/>class = Malware>, fillcolor="#e6843d"] ;
277 -> 285 ;
286 [label=<VersionInformationSize &le; 14.5<br/>gini = 0.2<br/>samples = 177<br/>value = [157, 20]<br/>class = Malware>, fillcolor="#e89152"] ;
285 -> 286 ;
287 [label=<ResourcesMaxEntropy &le; 5.494<br/>gini = 0.03<br/>samples = 130<br/>value = [128, 2]<br/>class = Malware>, fillcolor="#e5833c"] ;
286 -> 287 ;
288 [label=<gini = 0.0<br/>samples = 128<br/>value = [128, 0]<br/>class = Malware>, fillcolor="#e58139"] ;
287 -> 288 ;
289 [label=<gini = 0.0<br/>samples = 2<br/>value = [0, 2]<br/>class = Legitimate>, fillcolor="#399de5"] ;
287 -> 289 ;
290 [label=<SectionMaxVirtualsize &le; 336203.0<br/>gini = 0.473<br/>samples = 47<br/>value = [29, 18]<br/>class = Malware>, fillcolor="#f5cfb4"] ;
286 -> 290 ;
291 [label=<ImportsNbDLL &le; 10.5<br/>gini = 0.454<br/>samples = 23<br/>value = [8, 15]<br/>class = Legitimate>, fillcolor="#a3d1f3"] ;
290 -> 291 ;
292 [label=<SizeOfInitializedData &le; 51200.0<br/>gini = 0.219<br/>samples = 8<br/>value = [7, 1]<br/>class = Malware>, fillcolor="#e99355"] ;
291 -> 292 ;
293 [label=<gini = 0.0<br/>samples = 1<br/>value = [0, 1]<br/>class = Legitimate>, fillcolor="#399de5"] ;
292 -> 293 ;
294 [label=<gini = 0.0<br/>samples = 7<br/>value = [7, 0]<br/>class = Malware>, fillcolor="#e58139"] ;
292 -> 294 ;
295 [label=<SizeOfImage &le; 610304.0<br/>gini = 0.124<br/>samples = 15<br/>value = [1, 14]<br/>class = Legitimate>, fillcolor="#47a4e7"] ;
291 -> 295 ;
296 [label=<gini = 0.0<br/>samples = 14<br/>value = [0, 14]<br/>class = Legitimate>, fillcolor="#399de5"] ;
295 -> 296 ;
297 [label=<gini = 0.0<br/>samples = 1<br/>value = [1, 0]<br/>class = Malware>, fillcolor="#e58139"] ;
295 -> 297 ;
298 [label=<AddressOfEntryPoint &le; 122621.0<br/>gini = 0.219<br/>samples = 24<br/>value = [21, 3]<br/>class = Malware>, fillcolor="#e99355"] ;
290 -> 298 ;
299 [label=<CheckSum &le; 219064.5<br/>gini = 0.444<br/>samples = 3<br/>value = [1, 2]<br/>class = Legitimate>, fillcolor="#9ccef2"] ;
298 -> 299 ;
300 [label=<gini = 0.0<br/>samples = 2<br/>value = [0, 2]<br/>class = Legitimate>, fillcolor="#399de5"] ;
299 -> 300 ;
301 [label=<gini = 0.0<br/>samples = 1<br/>value = [1, 0]<br/>class = Malware>, fillcolor="#e58139"] ;
299 -> 301 ;
302 [label=<ResourcesNb &le; 73.0<br/>gini = 0.091<br/>samples = 21<br/>value = [20, 1]<br/>class = Malware>, fillcolor="#e68743"] ;
298 -> 302 ;
303 [label=<gini = 0.0<br/>samples = 20<br/>value = [20, 0]<br/>class = Malware>, fillcolor="#e58139"] ;
302 -> 303 ;
304 [label=<gini = 0.0<br/>samples = 1<br/>value = [0, 1]<br/>class = Legitimate>, fillcolor="#399de5"] ;
302 -> 304 ;
305 [label=<DllCharacteristics &le; 33152.0<br/>gini = 0.024<br/>samples = 2060<br/>value = [2035, 25]<br/>class = Malware>, fillcolor="#e5833b"] ;
285 -> 305 ;
306 [label=<AddressOfEntryPoint &le; 107117.5<br/>gini = 0.023<br/>samples = 2059<br/>value = [2035, 24]<br/>class = Malware>, fillcolor="#e5823b"] ;
305 -> 306 ;
307 [label=<DllCharacteristics &le; 33056.0<br/>gini = 0.139<br/>samples = 199<br/>value = [184.0, 15.0]<br/>class = Malware>, fillcolor="#e78b49"] ;
306 -> 307 ;
308 [label=<ResourcesMaxSize &le; 17921955.0<br/>gini = 0.053<br/>samples = 184<br/>value = [179, 5]<br/>class = Malware>, fillcolor="#e6853f"] ;
307 -> 308 ;
309 [label=<SectionsMaxEntropy &le; 6.645<br/>gini = 0.043<br/>samples = 183<br/>value = [179, 4]<br/>class = Malware>, fillcolor="#e6843d"] ;
308 -> 309 ;
310 [label=<ImportsNbOrdinal &le; 10.5<br/>gini = 0.444<br/>samples = 9<br/>value = [6, 3]<br/>class = Malware>, fillcolor="#f2c09c"] ;
309 -> 310 ;
311 [label=<gini = 0.0<br/>samples = 6<br/>value = [6, 0]<br/>class = Malware>, fillcolor="#e58139"] ;
310 -> 311 ;
312 [label=<gini = 0.0<br/>samples = 3<br/>value = [0, 3]<br/>class = Legitimate>, fillcolor="#399de5"] ;
310 -> 312 ;
313 [label=<ResourcesMaxSize &le; 249674.5<br/>gini = 0.011<br/>samples = 174<br/>value = [173, 1]<br/>class = Malware>, fillcolor="#e5823a"] ;
309 -> 313 ;
314 [label=<gini = 0.0<br/>samples = 165<br/>value = [165, 0]<br/>class = Malware>, fillcolor="#e58139"] ;
313 -> 314 ;
315 [label=<SectionsMeanRawsize &le; 150592.0<br/>gini = 0.198<br/>samples = 9<br/>value = [8, 1]<br/>class = Malware>, fillcolor="#e89152"] ;
313 -> 315 ;
316 [label=<gini = 0.0<br/>samples = 1<br/>value = [0, 1]<br/>class = Legitimate>, fillcolor="#399de5"] ;
315 -> 316 ;
317 [label=<gini = 0.0<br/>samples = 8<br/>value = [8, 0]<br/>class = Malware>, fillcolor="#e58139"] ;
315 -> 317 ;
318 [label=<gini = 0.0<br/>samples = 1<br/>value = [0, 1]<br/>class = Legitimate>, fillcolor="#399de5"] ;
308 -> 318 ;
319 [label=<BaseOfData &le; 182272.0<br/>gini = 0.444<br/>samples = 15<br/>value = [5, 10]<br/>class = Legitimate>, fillcolor="#9ccef2"] ;
307 -> 319 ;
320 [label=<SectionsMinEntropy &le; 1.389<br/>gini = 0.278<br/>samples = 6<br/>value = [5, 1]<br/>class = Malware>, fillcolor="#ea9a61"] ;
319 -> 320 ;
321 [label=<gini = 0.0<br/>samples = 1<br/>value = [0, 1]<br/>class = Legitimate>, fillcolor="#399de5"] ;
320 -> 321 ;
322 [label=<gini = 0.0<br/>samples = 5<br/>value = [5, 0]<br/>class = Malware>, fillcolor="#e58139"] ;
320 -> 322 ;
323 [label=<gini = 0.0<br/>samples = 9<br/>value = [0, 9]<br/>class = Legitimate>, fillcolor="#399de5"] ;
319 -> 323 ;
324 [label=<ResourcesMinSize &le; 125.0<br/>gini = 0.01<br/>samples = 1860<br/>value = [1851, 9]<br/>class = Malware>, fillcolor="#e5823a"] ;
306 -> 324 ;
325 [label=<ResourcesMinSize &le; 1.5<br/>gini = 0.008<br/>samples = 1849<br/>value = [1842, 7]<br/>class = Malware>, fillcolor="#e5813a"] ;
324 -> 325 ;
326 [label=<SectionsMeanRawsize &le; 349747.203<br/>gini = 0.375<br/>samples = 4<br/>value = [3, 1]<br/>class = Malware>, fillcolor="#eeab7b"] ;
325 -> 326 ;
327 [label=<gini = 0.0<br/>samples = 1<br/>value = [0, 1]<br/>class = Legitimate>, fillcolor="#399de5"] ;
326 -> 327 ;
328 [label=<gini = 0.0<br/>samples = 3<br/>value = [3, 0]<br/>class = Malware>, fillcolor="#e58139"] ;
326 -> 328 ;
329 [label=<SectionsMinRawsize &le; 42240.0<br/>gini = 0.006<br/>samples = 1845<br/>value = [1839, 6]<br/>class = Malware>, fillcolor="#e5813a"] ;
325 -> 329 ;
330 [label=<ResourcesMaxSize &le; 141852.0<br/>gini = 0.005<br/>samples = 1840<br/>value = [1835, 5]<br/>class = Malware>, fillcolor="#e5813a"] ;
329 -> 330 ;
331 [label=<gini = 0.0<br/>samples = 1606<br/>value = [1606, 0]<br/>class = Malware>, fillcolor="#e58139"] ;
330 -> 331 ;
332 [label=<ResourcesMeanSize &le; 4450.774<br/>gini = 0.042<br/>samples = 234<br/>value = [229, 5]<br/>class = Malware>, fillcolor="#e6843d"] ;
330 -> 332 ;
333 [label=<LoadConfigurationSize &le; 36.0<br/>gini = 0.32<br/>samples = 5<br/>value = [1, 4]<br/>class = Legitimate>, fillcolor="#6ab6ec"] ;
332 -> 333 ;
334 [label=<gini = 0.0<br/>samples = 1<br/>value = [1, 0]<br/>class = Malware>, fillcolor="#e58139"] ;
333 -> 334 ;
335 [label=<gini = 0.0<br/>samples = 4<br/>value = [0, 4]<br/>class = Legitimate>, fillcolor="#399de5"] ;
333 -> 335 ;
336 [label=<BaseOfData &le; 305152.0<br/>gini = 0.009<br/>samples = 229<br/>value = [228, 1]<br/>class = Malware>, fillcolor="#e5823a"] ;
332 -> 336 ;
337 [label=<BaseOfData &le; 282624.0<br/>gini = 0.198<br/>samples = 9<br/>value = [8, 1]<br/>class = Malware>, fillcolor="#e89152"] ;
336 -> 337 ;
338 [label=<gini = 0.0<br/>samples = 8<br/>value = [8, 0]<br/>class = Malware>, fillcolor="#e58139"] ;
337 -> 338 ;
339 [label=<gini = 0.0<br/>samples = 1<br/>value = [0, 1]<br/>class = Legitimate>, fillcolor="#399de5"] ;
337 -> 339 ;
340 [label=<gini = 0.0<br/>samples = 220<br/>value = [220, 0]<br/>class = Malware>, fillcolor="#e58139"] ;
336 -> 340 ;
341 [label=<SectionMaxRawsize &le; 488192.0<br/>gini = 0.32<br/>samples = 5<br/>value = [4, 1]<br/>class = Malware>, fillcolor="#eca06a"] ;
329 -> 341 ;
342 [label=<gini = 0.0<br/>samples = 1<br/>value = [0, 1]<br/>class = Legitimate>, fillcolor="#399de5"] ;
341 -> 342 ;
343 [label=<gini = 0.0<br/>samples = 4<br/>value = [4, 0]<br/>class = Malware>, fillcolor="#e58139"] ;
341 -> 343 ;
344 [label=<SectionsMaxEntropy &le; 6.601<br/>gini = 0.298<br/>samples = 11<br/>value = [9, 2]<br/>class = Malware>, fillcolor="#eb9d65"] ;
324 -> 344 ;
345 [label=<gini = 0.0<br/>samples = 2<br/>value = [0, 2]<br/>class = Legitimate>, fillcolor="#399de5"] ;
344 -> 345 ;
346 [label=<gini = 0.0<br/>samples = 9<br/>value = [9, 0]<br/>class = Malware>, fillcolor="#e58139"] ;
344 -> 346 ;
347 [label=<gini = 0.0<br/>samples = 1<br/>value = [0, 1]<br/>class = Legitimate>, fillcolor="#399de5"] ;
305 -> 347 ;
348 [label=<LoadConfigurationSize &le; 36.0<br/>gini = 0.452<br/>samples = 29<br/>value = [19, 10]<br/>class = Malware>, fillcolor="#f3c3a1"] ;
276 -> 348 ;
349 [label=<gini = 0.0<br/>samples = 14<br/>value = [14, 0]<br/>class = Malware>, fillcolor="#e58139"] ;
348 -> 349 ;
350 [label=<ImportsNb &le; 413.5<br/>gini = 0.444<br/>samples = 15<br/>value = [5, 10]<br/>class = Legitimate>, fillcolor="#9ccef2"] ;
348 -> 350 ;
351 [label=<SectionMaxRawsize &le; 16438272.0<br/>gini = 0.165<br/>samples = 11<br/>value = [1, 10]<br/>class = Legitimate>, fillcolor="#4da7e8"] ;
350 -> 351 ;
352 [label=<gini = 0.0<br/>samples = 10<br/>value = [0, 10]<br/>class = Legitimate>, fillcolor="#399de5"] ;
351 -> 352 ;
353 [label=<gini = 0.0<br/>samples = 1<br/>value = [1, 0]<br/>class = Malware>, fillcolor="#e58139"] ;
351 -> 353 ;
354 [label=<gini = 0.0<br/>samples = 4<br/>value = [4, 0]<br/>class = Malware>, fillcolor="#e58139"] ;
350 -> 354 ;
355 [label=<Characteristics &le; 265.0<br/>gini = 0.5<br/>samples = 34<br/>value = [17, 17]<br/>class = Malware>, fillcolor="#ffffff"] ;
275 -> 355 ;
356 [label=<ImportsNbOrdinal &le; 10.5<br/>gini = 0.32<br/>samples = 20<br/>value = [4, 16]<br/>class = Legitimate>, fillcolor="#6ab6ec"] ;
355 -> 356 ;
357 [label=<gini = 0.0<br/>samples = 16<br/>value = [0, 16]<br/>class = Legitimate>, fillcolor="#399de5"] ;
356 -> 357 ;
358 [label=<gini = 0.0<br/>samples = 4<br/>value = [4, 0]<br/>class = Malware>, fillcolor="#e58139"] ;
356 -> 358 ;
359 [label=<SectionsMinRawsize &le; 30208.0<br/>gini = 0.133<br/>samples = 14<br/>value = [13, 1]<br/>class = Malware>, fillcolor="#e78b48"] ;
355 -> 359 ;
360 [label=<gini = 0.0<br/>samples = 13<br/>value = [13, 0]<br/>class = Malware>, fillcolor="#e58139"] ;
359 -> 360 ;
361 [label=<gini = 0.0<br/>samples = 1<br/>value = [0, 1]<br/>class = Legitimate>, fillcolor="#399de5"] ;
359 -> 361 ;
362 [label=<ImportsNbDLL &le; 5.5<br/>gini = 0.473<br/>samples = 13<br/>value = [5, 8]<br/>class = Legitimate>, fillcolor="#b5daf5"] ;
20 -> 362 ;
363 [label=<ResourcesNb &le; 2.5<br/>gini = 0.278<br/>samples = 6<br/>value = [5, 1]<br/>class = Malware>, fillcolor="#ea9a61"] ;
362 -> 363 ;
364 [label=<gini = 0.0<br/>samples = 5<br/>value = [5, 0]<br/>class = Malware>, fillcolor="#e58139"] ;
363 -> 364 ;
365 [label=<gini = 0.0<br/>samples = 1<br/>value = [0, 1]<br/>class = Legitimate>, fillcolor="#399de5"] ;
363 -> 365 ;
366 [label=<gini = 0.0<br/>samples = 7<br/>value = [0, 7]<br/>class = Legitimate>, fillcolor="#399de5"] ;
362 -> 366 ;
367 [label=<SectionsMaxEntropy &le; 6.738<br/>gini = 0.444<br/>samples = 51<br/>value = [34, 17]<br/>class = Malware>, fillcolor="#f2c09c"] ;
19 -> 367 ;
368 [label=<AddressOfEntryPoint &le; 103015.5<br/>gini = 0.198<br/>samples = 18<br/>value = [2, 16]<br/>class = Legitimate>, fillcolor="#52a9e8"] ;
367 -> 368 ;
369 [label=<gini = 0.0<br/>samples = 15<br/>value = [0, 15]<br/>class = Legitimate>, fillcolor="#399de5"] ;
368 -> 369 ;
370 [label=<SectionsMeanVirtualsize &le; 135533.082<br/>gini = 0.444<br/>samples = 3<br/>value = [2, 1]<br/>class = Malware>, fillcolor="#f2c09c"] ;
368 -> 370 ;
371 [label=<gini = 0.0<br/>samples = 2<br/>value = [2, 0]<br/>class = Malware>, fillcolor="#e58139"] ;
370 -> 371 ;
372 [label=<gini = 0.0<br/>samples = 1<br/>value = [0, 1]<br/>class = Legitimate>, fillcolor="#399de5"] ;
370 -> 372 ;
373 [label=<Characteristics &le; 258.5<br/>gini = 0.059<br/>samples = 33<br/>value = [32, 1]<br/>class = Malware>, fillcolor="#e6853f"] ;
367 -> 373 ;
374 [label=<gini = 0.0<br/>samples = 1<br/>value = [0, 1]<br/>class = Legitimate>, fillcolor="#399de5"] ;
373 -> 374 ;
375 [label=<gini = 0.0<br/>samples = 32<br/>value = [32, 0]<br/>class = Malware>, fillcolor="#e58139"] ;
373 -> 375 ;
376 [label=<SectionsMaxEntropy &le; 6.61<br/>gini = 0.417<br/>samples = 125<br/>value = [88, 37]<br/>class = Malware>, fillcolor="#f0b68c"] ;
18 -> 376 ;
377 [label=<CheckSum &le; 358326.5<br/>gini = 0.349<br/>samples = 40<br/>value = [9, 31]<br/>class = Legitimate>, fillcolor="#72b9ed"] ;
376 -> 377 ;
378 [label=<gini = 0.0<br/>samples = 7<br/>value = [7, 0]<br/>class = Malware>, fillcolor="#e58139"] ;
377 -> 378 ;
379 [label=<AddressOfEntryPoint &le; 3410151.5<br/>gini = 0.114<br/>samples = 33<br/>value = [2, 31]<br/>class = Legitimate>, fillcolor="#46a3e7"] ;
377 -> 379 ;
380 [label=<ResourcesMeanSize &le; 58081.106<br/>gini = 0.061<br/>samples = 32<br/>value = [1, 31]<br/>class = Legitimate>, fillcolor="#3fa0e6"] ;
379 -> 380 ;
381 [label=<gini = 0.0<br/>samples = 31<br/>value = [0, 31]<br/>class = Legitimate>, fillcolor="#399de5"] ;
380 -> 381 ;
382 [label=<gini = 0.0<br/>samples = 1<br/>value = [1, 0]<br/>class = Malware>, fillcolor="#e58139"] ;
380 -> 382 ;
383 [label=<gini = 0.0<br/>samples = 1<br/>value = [1, 0]<br/>class = Malware>, fillcolor="#e58139"] ;
379 -> 383 ;
384 [label=<MinorSubsystemVersion &le; 0.5<br/>gini = 0.131<br/>samples = 85<br/>value = [79, 6]<br/>class = Malware>, fillcolor="#e78b48"] ;
376 -> 384 ;
385 [label=<gini = 0.0<br/>samples = 70<br/>value = [70, 0]<br/>class = Malware>, fillcolor="#e58139"] ;
384 -> 385 ;
386 [label=<SectionsMeanEntropy &le; 6.018<br/>gini = 0.48<br/>samples = 15<br/>value = [9, 6]<br/>class = Malware>, fillcolor="#f6d5bd"] ;
384 -> 386 ;
387 [label=<SizeOfImage &le; 29255680.0<br/>gini = 0.375<br/>samples = 12<br/>value = [9, 3]<br/>class = Malware>, fillcolor="#eeab7b"] ;
386 -> 387 ;
388 [label=<CheckSum &le; 2691641.5<br/>gini = 0.18<br/>samples = 10<br/>value = [9, 1]<br/>class = Malware>, fillcolor="#e88f4f"] ;
387 -> 388 ;
389 [label=<gini = 0.0<br/>samples = 1<br/>value = [0, 1]<br/>class = Legitimate>, fillcolor="#399de5"] ;
388 -> 389 ;
390 [label=<gini = 0.0<br/>samples = 9<br/>value = [9, 0]<br/>class = Malware>, fillcolor="#e58139"] ;
388 -> 390 ;
391 [label=<gini = 0.0<br/>samples = 2<br/>value = [0, 2]<br/>class = Legitimate>, fillcolor="#399de5"] ;
387 -> 391 ;
392 [label=<gini = 0.0<br/>samples = 3<br/>value = [0, 3]<br/>class = Legitimate>, fillcolor="#399de5"] ;
386 -> 392 ;
393 [label=<VersionInformationSize &le; 15.5<br/>gini = 0.219<br/>samples = 1488<br/>value = [1302, 186]<br/>class = Malware>, fillcolor="#e99355"] ;
17 -> 393 ;
394 [label=<ImageBase &le; 3670016.0<br/>gini = 0.045<br/>samples = 871<br/>value = [851, 20]<br/>class = Malware>, fillcolor="#e6843e"] ;
393 -> 394 ;
395 [label=<gini = 0.0<br/>samples = 3<br/>value = [0, 3]<br/>class = Legitimate>, fillcolor="#399de5"] ;
394 -> 395 ;
396 [label=<ResourcesMinEntropy &le; 3.348<br/>gini = 0.038<br/>samples = 868<br/>value = [851, 17]<br/>class = Malware>, fillcolor="#e6843d"] ;
394 -> 396 ;
397 [label=<SectionsMinEntropy &le; 0.987<br/>gini = 0.024<br/>samples = 835<br/>value = [825, 10]<br/>class = Malware>, fillcolor="#e5833b"] ;
396 -> 397 ;
398 [label=<gini = 0.0<br/>samples = 503<br/>value = [503, 0]<br/>class = Malware>, fillcolor="#e58139"] ;
397 -> 398 ;
399 [label=<SectionsMinEntropy &le; 1.002<br/>gini = 0.058<br/>samples = 332<br/>value = [322, 10]<br/>class = Malware>, fillcolor="#e6853f"] ;
397 -> 399 ;
400 [label=<gini = 0.0<br/>samples = 2<br/>value = [0, 2]<br/>class = Legitimate>, fillcolor="#399de5"] ;
399 -> 400 ;
401 [label=<ResourcesMinSize &le; 343.0<br/>gini = 0.047<br/>samples = 330<br/>value = [322, 8]<br/>class = Malware>, fillcolor="#e6843e"] ;
399 -> 401 ;
402 [label=<DllCharacteristics &le; 288.0<br/>gini = 0.042<br/>samples = 329<br/>value = [322, 7]<br/>class = Malware>, fillcolor="#e6843d"] ;
401 -> 402 ;
403 [label=<ResourcesMaxEntropy &le; 4.037<br/>gini = 0.03<br/>samples = 324<br/>value = [319, 5]<br/>class = Malware>, fillcolor="#e5833c"] ;
402 -> 403 ;
404 [label=<CheckSum &le; 89711.0<br/>gini = 0.165<br/>samples = 44<br/>value = [40, 4]<br/>class = Malware>, fillcolor="#e88e4d"] ;
403 -> 404 ;
405 [label=<gini = 0.0<br/>samples = 38<br/>value = [38, 0]<br/>class = Malware>, fillcolor="#e58139"] ;
404 -> 405 ;
406 [label=<ResourcesMeanSize &le; 406.083<br/>gini = 0.444<br/>samples = 6<br/>value = [2, 4]<br/>class = Legitimate>, fillcolor="#9ccef2"] ;
404 -> 406 ;
407 [label=<SectionsMeanRawsize &le; 52565.334<br/>gini = 0.444<br/>samples = 3<br/>value = [2, 1]<br/>class = Malware>, fillcolor="#f2c09c"] ;
406 -> 407 ;
408 [label=<gini = 0.0<br/>samples = 2<br/>value = [2, 0]<br/>class = Malware>, fillcolor="#e58139"] ;
407 -> 408 ;
409 [label=<gini = 0.0<br/>samples = 1<br/>value = [0, 1]<br/>class = Legitimate>, fillcolor="#399de5"] ;
407 -> 409 ;
410 [label=<gini = 0.0<br/>samples = 3<br/>value = [0, 3]<br/>class = Legitimate>, fillcolor="#399de5"] ;
406 -> 410 ;
411 [label=<SectionsMeanEntropy &le; 3.987<br/>gini = 0.007<br/>samples = 280<br/>value = [279, 1]<br/>class = Malware>, fillcolor="#e5813a"] ;
403 -> 411 ;
412 [label=<SectionsMeanEntropy &le; 3.923<br/>gini = 0.219<br/>samples = 8<br/>value = [7, 1]<br/>class = Malware>, fillcolor="#e99355"] ;
411 -> 412 ;
413 [label=<gini = 0.0<br/>samples = 7<br/>value = [7, 0]<br/>class = Malware>, fillcolor="#e58139"] ;
412 -> 413 ;
414 [label=<gini = 0.0<br/>samples = 1<br/>value = [0, 1]<br/>class = Legitimate>, fillcolor="#399de5"] ;
412 -> 414 ;
415 [label=<gini = 0.0<br/>samples = 272<br/>value = [272, 0]<br/>class = Malware>, fillcolor="#e58139"] ;
411 -> 415 ;
416 [label=<SizeOfCode &le; 30720.0<br/>gini = 0.48<br/>samples = 5<br/>value = [3, 2]<br/>class = Malware>, fillcolor="#f6d5bd"] ;
402 -> 416 ;
417 [label=<gini = 0.0<br/>samples = 2<br/>value = [0, 2]<br/>class = Legitimate>, fillcolor="#399de5"] ;
416 -> 417 ;
418 [label=<gini = 0.0<br/>samples = 3<br/>value = [3, 0]<br/>class = Malware>, fillcolor="#e58139"] ;
416 -> 418 ;
419 [label=<gini = 0.0<br/>samples = 1<br/>value = [0, 1]<br/>class = Legitimate>, fillcolor="#399de5"] ;
401 -> 419 ;
420 [label=<VersionInformationSize &le; 14.5<br/>gini = 0.334<br/>samples = 33<br/>value = [26, 7]<br/>class = Malware>, fillcolor="#eca36e"] ;
396 -> 420 ;
421 [label=<SectionsMeanRawsize &le; 14848.0<br/>gini = 0.137<br/>samples = 27<br/>value = [25, 2]<br/>class = Malware>, fillcolor="#e78b49"] ;
420 -> 421 ;
422 [label=<SizeOfInitializedData &le; 14336.0<br/>gini = 0.444<br/>samples = 3<br/>value = [1, 2]<br/>class = Legitimate>, fillcolor="#9ccef2"] ;
421 -> 422 ;
423 [label=<gini = 0.0<br/>samples = 1<br/>value = [1, 0]<br/>class = Malware>, fillcolor="#e58139"] ;
422 -> 423 ;
424 [label=<gini = 0.0<br/>samples = 2<br/>value = [0, 2]<br/>class = Legitimate>, fillcolor="#399de5"] ;
422 -> 424 ;
425 [label=<gini = 0.0<br/>samples = 24<br/>value = [24, 0]<br/>class = Malware>, fillcolor="#e58139"] ;
421 -> 425 ;
426 [label=<CheckSum &le; 37430.0<br/>gini = 0.278<br/>samples = 6<br/>value = [1, 5]<br/>class = Legitimate>, fillcolor="#61b1ea"] ;
420 -> 426 ;
427 [label=<gini = 0.0<br/>samples = 1<br/>value = [1, 0]<br/>class = Malware>, fillcolor="#e58139"] ;
426 -> 427 ;
428 [label=<gini = 0.0<br/>samples = 5<br/>value = [0, 5]<br/>class = Legitimate>, fillcolor="#399de5"] ;
426 -> 428 ;
429 [label=<CheckSum &le; 17301.5<br/>gini = 0.393<br/>samples = 617<br/>value = [451.0, 166.0]<br/>class = Malware>, fillcolor="#efaf82"] ;
393 -> 429 ;
430 [label=<AddressOfEntryPoint &le; 4131.0<br/>gini = 0.131<br/>samples = 285<br/>value = [265, 20]<br/>class = Malware>, fillcolor="#e78b48"] ;
429 -> 430 ;
431 [label=<ImportsNbDLL &le; 2.5<br/>gini = 0.408<br/>samples = 14<br/>value = [4, 10]<br/>class = Legitimate>, fillcolor="#88c4ef"] ;
430 -> 431 ;
432 [label=<gini = 0.0<br/>samples = 10<br/>value = [0, 10]<br/>class = Legitimate>, fillcolor="#399de5"] ;
431 -> 432 ;
433 [label=<gini = 0.0<br/>samples = 4<br/>value = [4, 0]<br/>class = Malware>, fillcolor="#e58139"] ;
431 -> 433 ;
434 [label=<LoadConfigurationSize &le; 36.0<br/>gini = 0.071<br/>samples = 271<br/>value = [261, 10]<br/>class = Malware>, fillcolor="#e68641"] ;
430 -> 434 ;
435 [label=<ResourcesMaxEntropy &le; 7.961<br/>gini = 0.009<br/>samples = 227<br/>value = [226, 1]<br/>class = Malware>, fillcolor="#e5823a"] ;
434 -> 435 ;
436 [label=<gini = 0.0<br/>samples = 204<br/>value = [204, 0]<br/>class = Malware>, fillcolor="#e58139"] ;
435 -> 436 ;
437 [label=<ImportsNbDLL &le; 9.5<br/>gini = 0.083<br/>samples = 23<br/>value = [22, 1]<br/>class = Malware>, fillcolor="#e68742"] ;
435 -> 437 ;
438 [label=<gini = 0.0<br/>samples = 21<br/>value = [21, 0]<br/>class = Malware>, fillcolor="#e58139"] ;
437 -> 438 ;
439 [label=<SizeOfCode &le; 1497088.0<br/>gini = 0.5<br/>samples = 2<br/>value = [1, 1]<br/>class = Malware>, fillcolor="#ffffff"] ;
437 -> 439 ;
440 [label=<gini = 0.0<br/>samples = 1<br/>value = [0, 1]<br/>class = Legitimate>, fillcolor="#399de5"] ;
439 -> 440 ;
441 [label=<gini = 0.0<br/>samples = 1<br/>value = [1, 0]<br/>class = Malware>, fillcolor="#e58139"] ;
439 -> 441 ;
442 [label=<SectionsMeanRawsize &le; 36352.0<br/>gini = 0.325<br/>samples = 44<br/>value = [35, 9]<br/>class = Malware>, fillcolor="#eca16c"] ;
434 -> 442 ;
443 [label=<SectionsMaxEntropy &le; 5.86<br/>gini = 0.397<br/>samples = 11<br/>value = [3, 8]<br/>class = Legitimate>, fillcolor="#83c2ef"] ;
442 -> 443 ;
444 [label=<ResourcesMeanEntropy &le; 4.238<br/>gini = 0.444<br/>samples = 3<br/>value = [2, 1]<br/>class = Malware>, fillcolor="#f2c09c"] ;
443 -> 444 ;
445 [label=<gini = 0.0<br/>samples = 2<br/>value = [2, 0]<br/>class = Malware>, fillcolor="#e58139"] ;
444 -> 445 ;
446 [label=<gini = 0.0<br/>samples = 1<br/>value = [0, 1]<br/>class = Legitimate>, fillcolor="#399de5"] ;
444 -> 446 ;
447 [label=<SectionsMaxEntropy &le; 6.54<br/>gini = 0.219<br/>samples = 8<br/>value = [1, 7]<br/>class = Legitimate>, fillcolor="#55abe9"] ;
443 -> 447 ;
448 [label=<gini = 0.0<br/>samples = 7<br/>value = [0, 7]<br/>class = Legitimate>, fillcolor="#399de5"] ;
447 -> 448 ;
449 [label=<gini = 0.0<br/>samples = 1<br/>value = [1, 0]<br/>class = Malware>, fillcolor="#e58139"] ;
447 -> 449 ;
450 [label=<DllCharacteristics &le; 160.0<br/>gini = 0.059<br/>samples = 33<br/>value = [32, 1]<br/>class = Malware>, fillcolor="#e6853f"] ;
442 -> 450 ;
451 [label=<gini = 0.0<br/>samples = 32<br/>value = [32, 0]<br/>class = Malware>, fillcolor="#e58139"] ;
450 -> 451 ;
452 [label=<gini = 0.0<br/>samples = 1<br/>value = [0, 1]<br/>class = Legitimate>, fillcolor="#399de5"] ;
450 -> 452 ;
453 [label=<DllCharacteristics &le; 288.0<br/>gini = 0.493<br/>samples = 332<br/>value = [186, 146]<br/>class = Malware>, fillcolor="#f9e4d4"] ;
429 -> 453 ;
454 [label=<ResourcesMaxEntropy &le; 5.778<br/>gini = 0.435<br/>samples = 250<br/>value = [170, 80]<br/>class = Malware>, fillcolor="#f1bc96"] ;
453 -> 454 ;
455 [label=<SectionsMinEntropy &le; 0.043<br/>gini = 0.5<br/>samples = 144<br/>value = [74, 70]<br/>class = Malware>, fillcolor="#fef8f4"] ;
454 -> 455 ;
456 [label=<MinorImageVersion &le; 538.0<br/>gini = 0.059<br/>samples = 33<br/>value = [32, 1]<br/>class = Malware>, fillcolor="#e6853f"] ;
455 -> 456 ;
457 [label=<gini = 0.0<br/>samples = 31<br/>value = [31, 0]<br/>class = Malware>, fillcolor="#e58139"] ;
456 -> 457 ;
458 [label=<ResourcesMeanSize &le; 713.125<br/>gini = 0.5<br/>samples = 2<br/>value = [1, 1]<br/>class = Malware>, fillcolor="#ffffff"] ;
456 -> 458 ;
459 [label=<gini = 0.0<br/>samples = 1<br/>value = [0, 1]<br/>class = Legitimate>, fillcolor="#399de5"] ;
458 -> 459 ;
460 [label=<gini = 0.0<br/>samples = 1<br/>value = [1, 0]<br/>class = Malware>, fillcolor="#e58139"] ;
458 -> 460 ;
461 [label=<SizeOfInitializedData &le; 274432.0<br/>gini = 0.47<br/>samples = 111<br/>value = [42, 69]<br/>class = Legitimate>, fillcolor="#b2d9f5"] ;
455 -> 461 ;
462 [label=<ImportsNbOrdinal &le; 13.5<br/>gini = 0.43<br/>samples = 96<br/>value = [30, 66]<br/>class = Legitimate>, fillcolor="#93caf1"] ;
461 -> 462 ;
463 [label=<ResourcesMeanSize &le; 324.105<br/>gini = 0.372<br/>samples = 81<br/>value = [20, 61]<br/>class = Legitimate>, fillcolor="#7abdee"] ;
462 -> 463 ;
464 [label=<gini = 0.0<br/>samples = 3<br/>value = [3, 0]<br/>class = Malware>, fillcolor="#e58139"] ;
463 -> 464 ;
465 [label=<CheckSum &le; 2453235.0<br/>gini = 0.341<br/>samples = 78<br/>value = [17, 61]<br/>class = Legitimate>, fillcolor="#70b8ec"] ;
463 -> 465 ;
466 [label=<ResourcesMaxEntropy &le; 4.885<br/>gini = 0.296<br/>samples = 72<br/>value = [13, 59]<br/>class = Legitimate>, fillcolor="#65b3eb"] ;
465 -> 466 ;
467 [label=<SectionsMinRawsize &le; 16384.0<br/>gini = 0.111<br/>samples = 34<br/>value = [2, 32]<br/>class = Legitimate>, fillcolor="#45a3e7"] ;
466 -> 467 ;
468 [label=<CheckSum &le; 67484.0<br/>gini = 0.059<br/>samples = 33<br/>value = [1, 32]<br/>class = Legitimate>, fillcolor="#3fa0e6"] ;
467 -> 468 ;
469 [label=<SectionsMaxEntropy &le; 6.399<br/>gini = 0.32<br/>samples = 5<br/>value = [1, 4]<br/>class = Legitimate>, fillcolor="#6ab6ec"] ;
468 -> 469 ;
470 [label=<gini = 0.0<br/>samples = 4<br/>value = [0, 4]<br/>class = Legitimate>, fillcolor="#399de5"] ;
469 -> 470 ;
471 [label=<gini = 0.0<br/>samples = 1<br/>value = [1, 0]<br/>class = Malware>, fillcolor="#e58139"] ;
469 -> 471 ;
472 [label=<gini = 0.0<br/>samples = 28<br/>value = [0, 28]<br/>class = Legitimate>, fillcolor="#399de5"] ;
468 -> 472 ;
473 [label=<gini = 0.0<br/>samples = 1<br/>value = [1, 0]<br/>class = Malware>, fillcolor="#e58139"] ;
467 -> 473 ;
474 [label=<ResourcesMaxEntropy &le; 4.911<br/>gini = 0.411<br/>samples = 38<br/>value = [11, 27]<br/>class = Legitimate>, fillcolor="#8ac5f0"] ;
466 -> 474 ;
475 [label=<gini = 0.0<br/>samples = 4<br/>value = [4, 0]<br/>class = Malware>, fillcolor="#e58139"] ;
474 -> 475 ;
476 [label=<SectionMaxRawsize &le; 30720.0<br/>gini = 0.327<br/>samples = 34<br/>value = [7, 27]<br/>class = Legitimate>, fillcolor="#6cb6ec"] ;
474 -> 476 ;
477 [label=<gini = 0.0<br/>samples = 2<br/>value = [2, 0]<br/>class = Malware>, fillcolor="#e58139"] ;
476 -> 477 ;
478 [label=<ResourcesMinEntropy &le; 3.524<br/>gini = 0.264<br/>samples = 32<br/>value = [5, 27]<br/>class = Legitimate>, fillcolor="#5eafea"] ;
476 -> 478 ;
479 [label=<ImportsNb &le; 10.5<br/>gini = 0.225<br/>samples = 31<br/>value = [4, 27]<br/>class = Legitimate>, fillcolor="#56ace9"] ;
478 -> 479 ;
480 [label=<gini = 0.0<br/>samples = 1<br/>value = [1, 0]<br/>class = Malware>, fillcolor="#e58139"] ;
479 -> 480 ;
481 [label=<ResourcesMaxSize &le; 830.0<br/>gini = 0.18<br/>samples = 30<br/>value = [3, 27]<br/>class = Legitimate>, fillcolor="#4fa8e8"] ;
479 -> 481 ;
482 [label=<VersionInformationSize &le; 16.5<br/>gini = 0.5<br/>samples = 2<br/>value = [1, 1]<br/>class = Malware>, fillcolor="#ffffff"] ;
481 -> 482 ;
483 [label=<gini = 0.0<br/>samples = 1<br/>value = [0, 1]<br/>class = Legitimate>, fillcolor="#399de5"] ;
482 -> 483 ;
484 [label=<gini = 0.0<br/>samples = 1<br/>value = [1, 0]<br/>class = Malware>, fillcolor="#e58139"] ;
482 -> 484 ;
485 [label=<ResourcesNb &le; 19.5<br/>gini = 0.133<br/>samples = 28<br/>value = [2, 26]<br/>class = Legitimate>, fillcolor="#48a5e7"] ;
481 -> 485 ;
486 [label=<gini = 0.0<br/>samples = 18<br/>value = [0, 18]<br/>class = Legitimate>, fillcolor="#399de5"] ;
485 -> 486 ;
487 [label=<MinorLinkerVersion &le; 5.0<br/>gini = 0.32<br/>samples = 10<br/>value = [2, 8]<br/>class = Legitimate>, fillcolor="#6ab6ec"] ;
485 -> 487 ;
488 [label=<ExportNb &le; 1.5<br/>gini = 0.198<br/>samples = 9<br/>value = [1, 8]<br/>class = Legitimate>, fillcolor="#52a9e8"] ;
487 -> 488 ;
489 [label=<gini = 0.0<br/>samples = 7<br/>value = [0, 7]<br/>class = Legitimate>, fillcolor="#399de5"] ;
488 -> 489 ;
490 [label=<SectionsMaxEntropy &le; 6.405<br/>gini = 0.5<br/>samples = 2<br/>value = [1, 1]<br/>class = Malware>, fillcolor="#ffffff"] ;
488 -> 490 ;
491 [label=<gini = 0.0<br/>samples = 1<br/>value = [0, 1]<br/>class = Legitimate>, fillcolor="#399de5"] ;
490 -> 491 ;
492 [label=<gini = 0.0<br/>samples = 1<br/>value = [1, 0]<br/>class = Malware>, fillcolor="#e58139"] ;
490 -> 492 ;
493 [label=<gini = 0.0<br/>samples = 1<br/>value = [1, 0]<br/>class = Malware>, fillcolor="#e58139"] ;
487 -> 493 ;
494 [label=<gini = 0.0<br/>samples = 1<br/>value = [1, 0]<br/>class = Malware>, fillcolor="#e58139"] ;
478 -> 494 ;
495 [label=<MajorLinkerVersion &le; 7.5<br/>gini = 0.444<br/>samples = 6<br/>value = [4, 2]<br/>class = Malware>, fillcolor="#f2c09c"] ;
465 -> 495 ;
496 [label=<ResourcesMeanEntropy &le; 3.019<br/>gini = 0.32<br/>samples = 5<br/>value = [4, 1]<br/>class = Malware>, fillcolor="#eca06a"] ;
495 -> 496 ;
497 [label=<SectionsMeanEntropy &le; 4.311<br/>gini = 0.5<br/>samples = 2<br/>value = [1, 1]<br/>class = Malware>, fillcolor="#ffffff"] ;
496 -> 497 ;
498 [label=<gini = 0.0<br/>samples = 1<br/>value = [0, 1]<br/>class = Legitimate>, fillcolor="#399de5"] ;
497 -> 498 ;
499 [label=<gini = 0.0<br/>samples = 1<br/>value = [1, 0]<br/>class = Malware>, fillcolor="#e58139"] ;
497 -> 499 ;
500 [label=<gini = 0.0<br/>samples = 3<br/>value = [3, 0]<br/>class = Malware>, fillcolor="#e58139"] ;
496 -> 500 ;
501 [label=<gini = 0.0<br/>samples = 1<br/>value = [0, 1]<br/>class = Legitimate>, fillcolor="#399de5"] ;
495 -> 501 ;
502 [label=<ImportsNb &le; 152.0<br/>gini = 0.444<br/>samples = 15<br/>value = [10, 5]<br/>class = Malware>, fillcolor="#f2c09c"] ;
462 -> 502 ;
503 [label=<gini = 0.0<br/>samples = 3<br/>value = [0, 3]<br/>class = Legitimate>, fillcolor="#399de5"] ;
502 -> 503 ;
504 [label=<AddressOfEntryPoint &le; 130602.5<br/>gini = 0.278<br/>samples = 12<br/>value = [10, 2]<br/>class = Malware>, fillcolor="#ea9a61"] ;
502 -> 504 ;
505 [label=<gini = 0.0<br/>samples = 9<br/>value = [9, 0]<br/>class = Malware>, fillcolor="#e58139"] ;
504 -> 505 ;
506 [label=<ImportsNbOrdinal &le; 38.5<br/>gini = 0.444<br/>samples = 3<br/>value = [1, 2]<br/>class = Legitimate>, fillcolor="#9ccef2"] ;
504 -> 506 ;
507 [label=<gini = 0.0<br/>samples = 2<br/>value = [0, 2]<br/>class = Legitimate>, fillcolor="#399de5"] ;
506 -> 507 ;
508 [label=<gini = 0.0<br/>samples = 1<br/>value = [1, 0]<br/>class = Malware>, fillcolor="#e58139"] ;
506 -> 508 ;
509 [label=<ResourcesMaxSize &le; 30878.0<br/>gini = 0.32<br/>samples = 15<br/>value = [12, 3]<br/>class = Malware>, fillcolor="#eca06a"] ;
461 -> 509 ;
510 [label=<gini = 0.0<br/>samples = 11<br/>value = [11, 0]<br/>class = Malware>, fillcolor="#e58139"] ;
509 -> 510 ;
511 [label=<SizeOfInitializedData &le; 352256.0<br/>gini = 0.375<br/>samples = 4<br/>value = [1, 3]<br/>class = Legitimate>, fillcolor="#7bbeee"] ;
509 -> 511 ;
512 [label=<gini = 0.0<br/>samples = 1<br/>value = [1, 0]<br/>class = Malware>, fillcolor="#e58139"] ;
511 -> 512 ;
513 [label=<gini = 0.0<br/>samples = 3<br/>value = [0, 3]<br/>class = Legitimate>, fillcolor="#399de5"] ;
511 -> 513 ;
514 [label=<ImportsNb &le; 585.0<br/>gini = 0.171<br/>samples = 106<br/>value = [96, 10]<br/>class = Malware>, fillcolor="#e88e4e"] ;
454 -> 514 ;
515 [label=<ResourcesMinSize &le; 6.5<br/>gini = 0.127<br/>samples = 103<br/>value = [96, 7]<br/>class = Malware>, fillcolor="#e78a47"] ;
514 -> 515 ;
516 [label=<gini = 0.0<br/>samples = 1<br/>value = [0, 1]<br/>class = Legitimate>, fillcolor="#399de5"] ;
515 -> 516 ;
517 [label=<SectionsMinRawsize &le; 18432.0<br/>gini = 0.111<br/>samples = 102<br/>value = [96, 6]<br/>class = Malware>, fillcolor="#e78945"] ;
515 -> 517 ;
518 [label=<SectionsMinEntropy &le; 4.028<br/>gini = 0.045<br/>samples = 87<br/>value = [85, 2]<br/>class = Malware>, fillcolor="#e6843e"] ;
517 -> 518 ;
519 [label=<ResourcesMinEntropy &le; 2.952<br/>gini = 0.023<br/>samples = 85<br/>value = [84, 1]<br/>class = Malware>, fillcolor="#e5823b"] ;
518 -> 519 ;
520 [label=<gini = 0.0<br/>samples = 81<br/>value = [81, 0]<br/>class = Malware>, fillcolor="#e58139"] ;
519 -> 520 ;
521 [label=<ResourcesMaxSize &le; 140008.0<br/>gini = 0.375<br/>samples = 4<br/>value = [3, 1]<br/>class = Malware>, fillcolor="#eeab7b"] ;
519 -> 521 ;
522 [label=<gini = 0.0<br/>samples = 3<br/>value = [3, 0]<br/>class = Malware>, fillcolor="#e58139"] ;
521 -> 522 ;
523 [label=<gini = 0.0<br/>samples = 1<br/>value = [0, 1]<br/>class = Legitimate>, fillcolor="#399de5"] ;
521 -> 523 ;
524 [label=<SectionsMeanEntropy &le; 5.264<br/>gini = 0.5<br/>samples = 2<br/>value = [1, 1]<br/>class = Malware>, fillcolor="#ffffff"] ;
518 -> 524 ;
525 [label=<gini = 0.0<br/>samples = 1<br/>value = [0, 1]<br/>class = Legitimate>, fillcolor="#399de5"] ;
524 -> 525 ;
526 [label=<gini = 0.0<br/>samples = 1<br/>value = [1, 0]<br/>class = Malware>, fillcolor="#e58139"] ;
524 -> 526 ;
527 [label=<SectionsMeanEntropy &le; 5.428<br/>gini = 0.391<br/>samples = 15<br/>value = [11, 4]<br/>class = Malware>, fillcolor="#eeaf81"] ;
517 -> 527 ;
528 [label=<ResourcesMaxEntropy &le; 7.978<br/>gini = 0.444<br/>samples = 6<br/>value = [2, 4]<br/>class = Legitimate>, fillcolor="#9ccef2"] ;
527 -> 528 ;
529 [label=<gini = 0.0<br/>samples = 4<br/>value = [0, 4]<br/>class = Legitimate>, fillcolor="#399de5"] ;
528 -> 529 ;
530 [label=<gini = 0.0<br/>samples = 2<br/>value = [2, 0]<br/>class = Malware>, fillcolor="#e58139"] ;
528 -> 530 ;
531 [label=<gini = 0.0<br/>samples = 9<br/>value = [9, 0]<br/>class = Malware>, fillcolor="#e58139"] ;
527 -> 531 ;
532 [label=<gini = 0.0<br/>samples = 3<br/>value = [0, 3]<br/>class = Legitimate>, fillcolor="#399de5"] ;
514 -> 532 ;
533 [label=<SizeOfInitializedData &le; 1421312.0<br/>gini = 0.314<br/>samples = 82<br/>value = [16, 66]<br/>class = Legitimate>, fillcolor="#69b5eb"] ;
453 -> 533 ;
534 [label=<SectionsMeanEntropy &le; 5.406<br/>gini = 0.193<br/>samples = 74<br/>value = [8, 66]<br/>class = Legitimate>, fillcolor="#51a9e8"] ;
533 -> 534 ;
535 [label=<ImportsNbDLL &le; 18.5<br/>gini = 0.133<br/>samples = 70<br/>value = [5, 65]<br/>class = Legitimate>, fillcolor="#48a5e7"] ;
534 -> 535 ;
536 [label=<MajorImageVersion &le; 9.0<br/>gini = 0.109<br/>samples = 69<br/>value = [4, 65]<br/>class = Legitimate>, fillcolor="#45a3e7"] ;
535 -> 536 ;
537 [label=<SectionsMaxEntropy &le; 7.617<br/>gini = 0.084<br/>samples = 68<br/>value = [3, 65]<br/>class = Legitimate>, fillcolor="#42a2e6"] ;
536 -> 537 ;
538 [label=<SectionsMinVirtualsize &le; 20068.0<br/>gini = 0.058<br/>samples = 67<br/>value = [2, 65]<br/>class = Legitimate>, fillcolor="#3fa0e6"] ;
537 -> 538 ;
539 [label=<ResourcesMeanSize &le; 5822.448<br/>gini = 0.03<br/>samples = 66<br/>value = [1, 65]<br/>class = Legitimate>, fillcolor="#3c9fe5"] ;
538 -> 539 ;
540 [label=<gini = 0.0<br/>samples = 59<br/>value = [0, 59]<br/>class = Legitimate>, fillcolor="#399de5"] ;
539 -> 540 ;
541 [label=<BaseOfData &le; 129024.0<br/>gini = 0.245<br/>samples = 7<br/>value = [1, 6]<br/>class = Legitimate>, fillcolor="#5aade9"] ;
539 -> 541 ;
542 [label=<gini = 0.0<br/>samples = 6<br/>value = [0, 6]<br/>class = Legitimate>, fillcolor="#399de5"] ;
541 -> 542 ;
543 [label=<gini = 0.0<br/>samples = 1<br/>value = [1, 0]<br/>class = Malware>, fillcolor="#e58139"] ;
541 -> 543 ;
544 [label=<gini = 0.0<br/>samples = 1<br/>value = [1, 0]<br/>class = Malware>, fillcolor="#e58139"] ;
538 -> 544 ;
545 [label=<gini = 0.0<br/>samples = 1<br/>value = [1, 0]<br/>class = Malware>, fillcolor="#e58139"] ;
537 -> 545 ;
546 [label=<gini = 0.0<br/>samples = 1<br/>value = [1, 0]<br/>class = Malware>, fillcolor="#e58139"] ;
536 -> 546 ;
547 [label=<gini = 0.0<br/>samples = 1<br/>value = [1, 0]<br/>class = Malware>, fillcolor="#e58139"] ;
535 -> 547 ;
548 [label=<SizeOfStackCommit &le; 10240.0<br/>gini = 0.375<br/>samples = 4<br/>value = [3, 1]<br/>class = Malware>, fillcolor="#eeab7b"] ;
534 -> 548 ;
549 [label=<gini = 0.0<br/>samples = 3<br/>value = [3, 0]<br/>class = Malware>, fillcolor="#e58139"] ;
548 -> 549 ;
550 [label=<gini = 0.0<br/>samples = 1<br/>value = [0, 1]<br/>class = Legitimate>, fillcolor="#399de5"] ;
548 -> 550 ;
551 [label=<gini = 0.0<br/>samples = 8<br/>value = [8, 0]<br/>class = Malware>, fillcolor="#e58139"] ;
533 -> 551 ;
552 [label=<CheckSum &le; 1012625.0<br/>gini = 0.105<br/>samples = 54<br/>value = [3, 51]<br/>class = Legitimate>, fillcolor="#45a3e7"] ;
4 -> 552 ;
553 [label=<gini = 0.0<br/>samples = 3<br/>value = [3, 0]<br/>class = Malware>, fillcolor="#e58139"] ;
552 -> 553 ;
554 [label=<gini = 0.0<br/>samples = 51<br/>value = [0, 51]<br/>class = Legitimate>, fillcolor="#399de5"] ;
552 -> 554 ;
555 [label=<VersionInformationSize &le; 8.0<br/>gini = 0.303<br/>samples = 86<br/>value = [16, 70]<br/>class = Legitimate>, fillcolor="#66b3eb"] ;
3 -> 555 ;
556 [label=<gini = 0.0<br/>samples = 16<br/>value = [16, 0]<br/>class = Malware>, fillcolor="#e58139"] ;
555 -> 556 ;
557 [label=<gini = 0.0<br/>samples = 70<br/>value = [0, 70]<br/>class = Legitimate>, fillcolor="#399de5"] ;
555 -> 557 ;
558 [label=<MajorSubsystemVersion &le; 4.5<br/>gini = 0.155<br/>samples = 722<br/>value = [61, 661]<br/>class = Legitimate>, fillcolor="#4ba6e7"] ;
2 -> 558 ;
559 [label=<ResourcesMaxSize &le; 115660.0<br/>gini = 0.045<br/>samples = 43<br/>value = [42, 1]<br/>class = Malware>, fillcolor="#e6843e"] ;
558 -> 559 ;
560 [label=<gini = 0.0<br/>samples = 42<br/>value = [42, 0]<br/>class = Malware>, fillcolor="#e58139"] ;
559 -> 560 ;
561 [label=<gini = 0.0<br/>samples = 1<br/>value = [0, 1]<br/>class = Legitimate>, fillcolor="#399de5"] ;
559 -> 561 ;
562 [label=<ResourcesMaxEntropy &le; 3.488<br/>gini = 0.054<br/>samples = 679<br/>value = [19, 660]<br/>class = Legitimate>, fillcolor="#3fa0e6"] ;
558 -> 562 ;
563 [label=<ExportNb &le; 2.0<br/>gini = 0.463<br/>samples = 11<br/>value = [7, 4]<br/>class = Malware>, fillcolor="#f4c9aa"] ;
562 -> 563 ;
564 [label=<gini = 0.0<br/>samples = 7<br/>value = [7, 0]<br/>class = Malware>, fillcolor="#e58139"] ;
563 -> 564 ;
565 [label=<gini = 0.0<br/>samples = 4<br/>value = [0, 4]<br/>class = Legitimate>, fillcolor="#399de5"] ;
563 -> 565 ;
566 [label=<SectionsMaxEntropy &le; 7.987<br/>gini = 0.035<br/>samples = 668<br/>value = [12, 656]<br/>class = Legitimate>, fillcolor="#3d9fe5"] ;
562 -> 566 ;
567 [label=<ResourcesMeanEntropy &le; 1.385<br/>gini = 0.021<br/>samples = 662<br/>value = [7, 655]<br/>class = Legitimate>, fillcolor="#3b9ee5"] ;
566 -> 567 ;
568 [label=<gini = 0.0<br/>samples = 1<br/>value = [1, 0]<br/>class = Malware>, fillcolor="#e58139"] ;
567 -> 568 ;
569 [label=<ResourcesMinEntropy &le; 3.625<br/>gini = 0.018<br/>samples = 661<br/>value = [6, 655]<br/>class = Legitimate>, fillcolor="#3b9ee5"] ;
567 -> 569 ;
570 [label=<ImportsNbDLL &le; 18.5<br/>gini = 0.015<br/>samples = 660<br/>value = [5, 655]<br/>class = Legitimate>, fillcolor="#3b9ee5"] ;
569 -> 570 ;
571 [label=<ResourcesMeanSize &le; 128362.258<br/>gini = 0.012<br/>samples = 658<br/>value = [4, 654]<br/>class = Legitimate>, fillcolor="#3a9ee5"] ;
570 -> 571 ;
572 [label=<ResourcesMinSize &le; 2.5<br/>gini = 0.009<br/>samples = 656<br/>value = [3, 653]<br/>class = Legitimate>, fillcolor="#3a9de5"] ;
571 -> 572 ;
573 [label=<SizeOfStackCommit &le; 6144.0<br/>gini = 0.444<br/>samples = 3<br/>value = [1, 2]<br/>class = Legitimate>, fillcolor="#9ccef2"] ;
572 -> 573 ;
574 [label=<gini = 0.0<br/>samples = 2<br/>value = [0, 2]<br/>class = Legitimate>, fillcolor="#399de5"] ;
573 -> 574 ;
575 [label=<gini = 0.0<br/>samples = 1<br/>value = [1, 0]<br/>class = Malware>, fillcolor="#e58139"] ;
573 -> 575 ;
576 [label=<MajorImageVersion &le; 10662.5<br/>gini = 0.006<br/>samples = 653<br/>value = [2, 651]<br/>class = Legitimate>, fillcolor="#3a9de5"] ;
572 -> 576 ;
577 [label=<SectionsMeanVirtualsize &le; 1244.583<br/>gini = 0.003<br/>samples = 646<br/>value = [1, 645]<br/>class = Legitimate>, fillcolor="#399de5"] ;
576 -> 577 ;
578 [label=<AddressOfEntryPoint &le; 14394.0<br/>gini = 0.198<br/>samples = 9<br/>value = [1, 8]<br/>class = Legitimate>, fillcolor="#52a9e8"] ;
577 -> 578 ;
579 [label=<gini = 0.0<br/>samples = 8<br/>value = [0, 8]<br/>class = Legitimate>, fillcolor="#399de5"] ;
578 -> 579 ;
580 [label=<gini = 0.0<br/>samples = 1<br/>value = [1, 0]<br/>class = Malware>, fillcolor="#e58139"] ;
578 -> 580 ;
581 [label=<gini = 0.0<br/>samples = 637<br/>value = [0, 637]<br/>class = Legitimate>, fillcolor="#399de5"] ;
577 -> 581 ;
582 [label=<SizeOfImage &le; 280576.0<br/>gini = 0.245<br/>samples = 7<br/>value = [1, 6]<br/>class = Legitimate>, fillcolor="#5aade9"] ;
576 -> 582 ;
583 [label=<gini = 0.0<br/>samples = 1<br/>value = [1, 0]<br/>class = Malware>, fillcolor="#e58139"] ;
582 -> 583 ;
584 [label=<gini = 0.0<br/>samples = 6<br/>value = [0, 6]<br/>class = Legitimate>, fillcolor="#399de5"] ;
582 -> 584 ;
585 [label=<VersionInformationSize &le; 8.5<br/>gini = 0.5<br/>samples = 2<br/>value = [1, 1]<br/>class = Malware>, fillcolor="#ffffff"] ;
571 -> 585 ;
586 [label=<gini = 0.0<br/>samples = 1<br/>value = [1, 0]<br/>class = Malware>, fillcolor="#e58139"] ;
585 -> 586 ;
587 [label=<gini = 0.0<br/>samples = 1<br/>value = [0, 1]<br/>class = Legitimate>, fillcolor="#399de5"] ;
585 -> 587 ;
588 [label=<SectionsNb &le; 4.5<br/>gini = 0.5<br/>samples = 2<br/>value = [1, 1]<br/>class = Malware>, fillcolor="#ffffff"] ;
570 -> 588 ;
589 [label=<gini = 0.0<br/>samples = 1<br/>value = [0, 1]<br/>class = Legitimate>, fillcolor="#399de5"] ;
588 -> 589 ;
590 [label=<gini = 0.0<br/>samples = 1<br/>value = [1, 0]<br/>class = Malware>, fillcolor="#e58139"] ;
588 -> 590 ;
591 [label=<gini = 0.0<br/>samples = 1<br/>value = [1, 0]<br/>class = Malware>, fillcolor="#e58139"] ;
569 -> 591 ;
592 [label=<SizeOfImage &le; 54603776.0<br/>gini = 0.278<br/>samples = 6<br/>value = [5, 1]<br/>class = Malware>, fillcolor="#ea9a61"] ;
566 -> 592 ;
593 [label=<gini = 0.0<br/>samples = 5<br/>value = [5, 0]<br/>class = Malware>, fillcolor="#e58139"] ;
592 -> 593 ;
594 [label=<gini = 0.0<br/>samples = 1<br/>value = [0, 1]<br/>class = Legitimate>, fillcolor="#399de5"] ;
592 -> 594 ;
595 [label=<SectionsMinRawsize &le; 256.0<br/>gini = 0.129<br/>samples = 2866<br/>value = [198, 2668]<br/>class = Legitimate>, fillcolor="#48a4e7"] ;
1 -> 595 ;
596 [label=<CheckSum &le; 726416795.0<br/>gini = 0.118<br/>samples = 95<br/>value = [89, 6]<br/>class = Malware>, fillcolor="#e78946"] ;
595 -> 596 ;
597 [label=<ResourcesNb &le; 97.5<br/>gini = 0.022<br/>samples = 90<br/>value = [89, 1]<br/>class = Malware>, fillcolor="#e5823b"] ;
596 -> 597 ;
598 [label=<gini = 0.0<br/>samples = 89<br/>value = [89, 0]<br/>class = Malware>, fillcolor="#e58139"] ;
597 -> 598 ;
599 [label=<gini = 0.0<br/>samples = 1<br/>value = [0, 1]<br/>class = Legitimate>, fillcolor="#399de5"] ;
597 -> 599 ;
600 [label=<gini = 0.0<br/>samples = 5<br/>value = [0, 5]<br/>class = Legitimate>, fillcolor="#399de5"] ;
596 -> 600 ;
601 [label=<CheckSum &le; 1361.5<br/>gini = 0.076<br/>samples = 2771<br/>value = [109.0, 2662.0]<br/>class = Legitimate>, fillcolor="#41a1e6"] ;
595 -> 601 ;
602 [label=<SizeOfInitializedData &le; 768.0<br/>gini = 0.498<br/>samples = 140<br/>value = [74, 66]<br/>class = Malware>, fillcolor="#fcf1ea"] ;
601 -> 602 ;
603 [label=<DllCharacteristics &le; 17056.0<br/>gini = 0.121<br/>samples = 31<br/>value = [2, 29]<br/>class = Legitimate>, fillcolor="#47a4e7"] ;
602 -> 603 ;
604 [label=<gini = 0.0<br/>samples = 2<br/>value = [2, 0]<br/>class = Malware>, fillcolor="#e58139"] ;
603 -> 604 ;
605 [label=<gini = 0.0<br/>samples = 29<br/>value = [0, 29]<br/>class = Legitimate>, fillcolor="#399de5"] ;
603 -> 605 ;
606 [label=<ResourcesMeanEntropy &le; 4.15<br/>gini = 0.448<br/>samples = 109<br/>value = [72, 37]<br/>class = Malware>, fillcolor="#f2c29f"] ;
602 -> 606 ;
607 [label=<SectionsMeanEntropy &le; 2.554<br/>gini = 0.37<br/>samples = 94<br/>value = [71, 23]<br/>class = Malware>, fillcolor="#edaa79"] ;
606 -> 607 ;
608 [label=<SizeOfInitializedData &le; 1280.0<br/>gini = 0.408<br/>samples = 14<br/>value = [4, 10]<br/>class = Legitimate>, fillcolor="#88c4ef"] ;
607 -> 608 ;
609 [label=<gini = 0.0<br/>samples = 2<br/>value = [2, 0]<br/>class = Malware>, fillcolor="#e58139"] ;
608 -> 609 ;
610 [label=<Characteristics &le; 264.5<br/>gini = 0.278<br/>samples = 12<br/>value = [2, 10]<br/>class = Legitimate>, fillcolor="#61b1ea"] ;
608 -> 610 ;
611 [label=<SectionMaxVirtualsize &le; 25916.0<br/>gini = 0.444<br/>samples = 3<br/>value = [2, 1]<br/>class = Malware>, fillcolor="#f2c09c"] ;
610 -> 611 ;
612 [label=<gini = 0.0<br/>samples = 1<br/>value = [0, 1]<br/>class = Legitimate>, fillcolor="#399de5"] ;
611 -> 612 ;
613 [label=<gini = 0.0<br/>samples = 2<br/>value = [2, 0]<br/>class = Malware>, fillcolor="#e58139"] ;
611 -> 613 ;
614 [label=<gini = 0.0<br/>samples = 9<br/>value = [0, 9]<br/>class = Legitimate>, fillcolor="#399de5"] ;
610 -> 614 ;
615 [label=<ImportsNb &le; 100.5<br/>gini = 0.272<br/>samples = 80<br/>value = [67, 13]<br/>class = Malware>, fillcolor="#ea995f"] ;
607 -> 615 ;
616 [label=<SectionsMinVirtualsize &le; 10001.0<br/>gini = 0.142<br/>samples = 65<br/>value = [60, 5]<br/>class = Malware>, fillcolor="#e78c49"] ;
615 -> 616 ;
617 [label=<AddressOfEntryPoint &le; 5089.5<br/>gini = 0.117<br/>samples = 64<br/>value = [60, 4]<br/>class = Malware>, fillcolor="#e78946"] ;
616 -> 617 ;
618 [label=<ImportsNb &le; 57.0<br/>gini = 0.5<br/>samples = 4<br/>value = [2, 2]<br/>class = Malware>, fillcolor="#ffffff"] ;
617 -> 618 ;
619 [label=<gini = 0.0<br/>samples = 2<br/>value = [2, 0]<br/>class = Malware>, fillcolor="#e58139"] ;
618 -> 619 ;
620 [label=<gini = 0.0<br/>samples = 2<br/>value = [0, 2]<br/>class = Legitimate>, fillcolor="#399de5"] ;
618 -> 620 ;
621 [label=<ResourcesNb &le; 4.5<br/>gini = 0.064<br/>samples = 60<br/>value = [58, 2]<br/>class = Malware>, fillcolor="#e68540"] ;
617 -> 621 ;
622 [label=<SizeOfInitializedData &le; 1792.0<br/>gini = 0.034<br/>samples = 57<br/>value = [56, 1]<br/>class = Malware>, fillcolor="#e5833d"] ;
621 -> 622 ;
623 [label=<SizeOfImage &le; 75567.0<br/>gini = 0.375<br/>samples = 4<br/>value = [3, 1]<br/>class = Malware>, fillcolor="#eeab7b"] ;
622 -> 623 ;
624 [label=<gini = 0.0<br/>samples = 1<br/>value = [0, 1]<br/>class = Legitimate>, fillcolor="#399de5"] ;
623 -> 624 ;
625 [label=<gini = 0.0<br/>samples = 3<br/>value = [3, 0]<br/>class = Malware>, fillcolor="#e58139"] ;
623 -> 625 ;
626 [label=<gini = 0.0<br/>samples = 53<br/>value = [53, 0]<br/>class = Malware>, fillcolor="#e58139"] ;
622 -> 626 ;
627 [label=<SectionsNb &le; 3.5<br/>gini = 0.444<br/>samples = 3<br/>value = [2, 1]<br/>class = Malware>, fillcolor="#f2c09c"] ;
621 -> 627 ;
628 [label=<gini = 0.0<br/>samples = 1<br/>value = [0, 1]<br/>class = Legitimate>, fillcolor="#399de5"] ;
627 -> 628 ;
629 [label=<gini = 0.0<br/>samples = 2<br/>value = [2, 0]<br/>class = Malware>, fillcolor="#e58139"] ;
627 -> 629 ;
630 [label=<gini = 0.0<br/>samples = 1<br/>value = [0, 1]<br/>class = Legitimate>, fillcolor="#399de5"] ;
616 -> 630 ;
631 [label=<ResourcesMinEntropy &le; 1.836<br/>gini = 0.498<br/>samples = 15<br/>value = [7, 8]<br/>class = Legitimate>, fillcolor="#e6f3fc"] ;
615 -> 631 ;
632 [label=<gini = 0.0<br/>samples = 4<br/>value = [4, 0]<br/>class = Malware>, fillcolor="#e58139"] ;
631 -> 632 ;
633 [label=<BaseOfData &le; 247808.0<br/>gini = 0.397<br/>samples = 11<br/>value = [3, 8]<br/>class = Legitimate>, fillcolor="#83c2ef"] ;
631 -> 633 ;
634 [label=<gini = 0.0<br/>samples = 8<br/>value = [0, 8]<br/>class = Legitimate>, fillcolor="#399de5"] ;
633 -> 634 ;
635 [label=<gini = 0.0<br/>samples = 3<br/>value = [3, 0]<br/>class = Malware>, fillcolor="#e58139"] ;
633 -> 635 ;
636 [label=<BaseOfCode &le; 6144.0<br/>gini = 0.124<br/>samples = 15<br/>value = [1, 14]<br/>class = Legitimate>, fillcolor="#47a4e7"] ;
606 -> 636 ;
637 [label=<gini = 0.0<br/>samples = 14<br/>value = [0, 14]<br/>class = Legitimate>, fillcolor="#399de5"] ;
636 -> 637 ;
638 [label=<gini = 0.0<br/>samples = 1<br/>value = [1, 0]<br/>class = Malware>, fillcolor="#e58139"] ;
636 -> 638 ;
639 [label=<ResourcesMinEntropy &le; 4.489<br/>gini = 0.026<br/>samples = 2631<br/>value = [35, 2596]<br/>class = Legitimate>, fillcolor="#3c9ee5"] ;
601 -> 639 ;
640 [label=<ResourcesMaxEntropy &le; 7.996<br/>gini = 0.021<br/>samples = 2622<br/>value = [28, 2594]<br/>class = Legitimate>, fillcolor="#3b9ee5"] ;
639 -> 640 ;
641 [label=<SizeOfHeapReserve &le; 1572864.0<br/>gini = 0.018<br/>samples = 2616<br/>value = [24, 2592]<br/>class = Legitimate>, fillcolor="#3b9ee5"] ;
640 -> 641 ;
642 [label=<VersionInformationSize &le; 20.5<br/>gini = 0.016<br/>samples = 2612<br/>value = [21, 2591]<br/>class = Legitimate>, fillcolor="#3b9ee5"] ;
641 -> 642 ;
643 [label=<SizeOfUninitializedData &le; 8192.0<br/>gini = 0.014<br/>samples = 2609<br/>value = [19, 2590]<br/>class = Legitimate>, fillcolor="#3a9ee5"] ;
642 -> 643 ;
644 [label=<ImportsNb &le; 56.5<br/>gini = 0.014<br/>samples = 2608<br/>value = [18, 2590]<br/>class = Legitimate>, fillcolor="#3a9ee5"] ;
643 -> 644 ;
645 [label=<MajorLinkerVersion &le; 6.5<br/>gini = 0.005<br/>samples = 2357<br/>value = [6, 2351]<br/>class = Legitimate>, fillcolor="#3a9de5"] ;
644 -> 645 ;
646 [label=<SectionsNb &le; 2.5<br/>gini = 0.1<br/>samples = 19<br/>value = [1, 18]<br/>class = Legitimate>, fillcolor="#44a2e6"] ;
645 -> 646 ;
647 [label=<gini = 0.0<br/>samples = 1<br/>value = [1, 0]<br/>class = Malware>, fillcolor="#e58139"] ;
646 -> 647 ;
648 [label=<gini = 0.0<br/>samples = 18<br/>value = [0, 18]<br/>class = Legitimate>, fillcolor="#399de5"] ;
646 -> 648 ;
649 [label=<SectionsMeanEntropy &le; 1.955<br/>gini = 0.004<br/>samples = 2338<br/>value = [5, 2333]<br/>class = Legitimate>, fillcolor="#399de5"] ;
645 -> 649 ;
650 [label=<ResourcesMinSize &le; 1096.0<br/>gini = 0.048<br/>samples = 41<br/>value = [1, 40]<br/>class = Legitimate>, fillcolor="#3e9fe6"] ;
649 -> 650 ;
651 [label=<gini = 0.0<br/>samples = 40<br/>value = [0, 40]<br/>class = Legitimate>, fillcolor="#399de5"] ;
650 -> 651 ;
652 [label=<gini = 0.0<br/>samples = 1<br/>value = [1, 0]<br/>class = Malware>, fillcolor="#e58139"] ;
650 -> 652 ;
653 [label=<MajorLinkerVersion &le; 10.0<br/>gini = 0.003<br/>samples = 2297<br/>value = [4, 2293]<br/>class = Legitimate>, fillcolor="#399de5"] ;
649 -> 653 ;
654 [label=<ResourcesMinSize &le; 1046.0<br/>gini = 0.003<br/>samples = 2217<br/>value = [3.0, 2214.0]<br/>class = Legitimate>, fillcolor="#399de5"] ;
653 -> 654 ;
655 [label=<gini = 0.0<br/>samples = 1535<br/>value = [0, 1535]<br/>class = Legitimate>, fillcolor="#399de5"] ;
654 -> 655 ;
656 [label=<SectionMaxVirtualsize &le; 1210.0<br/>gini = 0.009<br/>samples = 682<br/>value = [3.0, 679.0]<br/>class = Legitimate>, fillcolor="#3a9de5"] ;
654 -> 656 ;
657 [label=<CheckSum &le; 23692.0<br/>gini = 0.117<br/>samples = 16<br/>value = [1, 15]<br/>class = Legitimate>, fillcolor="#46a4e7"] ;
656 -> 657 ;
658 [label=<CheckSum &le; 19695.0<br/>gini = 0.375<br/>samples = 4<br/>value = [1, 3]<br/>class = Legitimate>, fillcolor="#7bbeee"] ;
657 -> 658 ;
659 [label=<gini = 0.0<br/>samples = 3<br/>value = [0, 3]<br/>class = Legitimate>, fillcolor="#399de5"] ;
658 -> 659 ;
660 [label=<gini = 0.0<br/>samples = 1<br/>value = [1, 0]<br/>class = Malware>, fillcolor="#e58139"] ;
658 -> 660 ;
661 [label=<gini = 0.0<br/>samples = 12<br/>value = [0, 12]<br/>class = Legitimate>, fillcolor="#399de5"] ;
657 -> 661 ;
662 [label=<ResourcesMinSize &le; 1050.0<br/>gini = 0.006<br/>samples = 666<br/>value = [2, 664]<br/>class = Legitimate>, fillcolor="#3a9de5"] ;
656 -> 662 ;
663 [label=<CheckSum &le; 92453.5<br/>gini = 0.083<br/>samples = 23<br/>value = [1, 22]<br/>class = Legitimate>, fillcolor="#42a1e6"] ;
662 -> 663 ;
664 [label=<gini = 0.0<br/>samples = 18<br/>value = [0, 18]<br/>class = Legitimate>, fillcolor="#399de5"] ;
663 -> 664 ;
665 [label=<SectionMaxRawsize &le; 32768.0<br/>gini = 0.32<br/>samples = 5<br/>value = [1, 4]<br/>class = Legitimate>, fillcolor="#6ab6ec"] ;
663 -> 665 ;
666 [label=<gini = 0.0<br/>samples = 1<br/>value = [1, 0]<br/>class = Malware>, fillcolor="#e58139"] ;
665 -> 666 ;
667 [label=<gini = 0.0<br/>samples = 4<br/>value = [0, 4]<br/>class = Legitimate>, fillcolor="#399de5"] ;
665 -> 667 ;
668 [label=<SectionsMaxEntropy &le; 5.665<br/>gini = 0.003<br/>samples = 643<br/>value = [1, 642]<br/>class = Legitimate>, fillcolor="#399de5"] ;
662 -> 668 ;
669 [label=<gini = 0.0<br/>samples = 528<br/>value = [0, 528]<br/>class = Legitimate>, fillcolor="#399de5"] ;
668 -> 669 ;
670 [label=<SectionsMaxEntropy &le; 5.665<br/>gini = 0.017<br/>samples = 115<br/>value = [1, 114]<br/>class = Legitimate>, fillcolor="#3b9ee5"] ;
668 -> 670 ;
671 [label=<gini = 0.0<br/>samples = 1<br/>value = [1, 0]<br/>class = Malware>, fillcolor="#e58139"] ;
670 -> 671 ;
672 [label=<gini = 0.0<br/>samples = 114<br/>value = [0, 114]<br/>class = Legitimate>, fillcolor="#399de5"] ;
670 -> 672 ;
673 [label=<SectionsMaxEntropy &le; 6.271<br/>gini = 0.025<br/>samples = 80<br/>value = [1, 79]<br/>class = Legitimate>, fillcolor="#3c9ee5"] ;
653 -> 673 ;
674 [label=<gini = 0.0<br/>samples = 79<br/>value = [0, 79]<br/>class = Legitimate>, fillcolor="#399de5"] ;
673 -> 674 ;
675 [label=<gini = 0.0<br/>samples = 1<br/>value = [1, 0]<br/>class = Malware>, fillcolor="#e58139"] ;
673 -> 675 ;
676 [label=<ResourcesMaxEntropy &le; 7.737<br/>gini = 0.091<br/>samples = 251<br/>value = [12, 239]<br/>class = Legitimate>, fillcolor="#43a2e6"] ;
644 -> 676 ;
677 [label=<SectionsMaxEntropy &le; 5.425<br/>gini = 0.077<br/>samples = 249<br/>value = [10, 239]<br/>class = Legitimate>, fillcolor="#41a1e6"] ;
676 -> 677 ;
678 [label=<SectionsMaxEntropy &le; 4.75<br/>gini = 0.444<br/>samples = 3<br/>value = [2, 1]<br/>class = Malware>, fillcolor="#f2c09c"] ;
677 -> 678 ;
679 [label=<gini = 0.0<br/>samples = 1<br/>value = [0, 1]<br/>class = Legitimate>, fillcolor="#399de5"] ;
678 -> 679 ;
680 [label=<gini = 0.0<br/>samples = 2<br/>value = [2, 0]<br/>class = Malware>, fillcolor="#e58139"] ;
678 -> 680 ;
681 [label=<ResourcesMinEntropy &le; 3.747<br/>gini = 0.063<br/>samples = 246<br/>value = [8, 238]<br/>class = Legitimate>, fillcolor="#40a0e6"] ;
677 -> 681 ;
682 [label=<ResourcesNb &le; 208.0<br/>gini = 0.056<br/>samples = 245<br/>value = [7, 238]<br/>class = Legitimate>, fillcolor="#3fa0e6"] ;
681 -> 682 ;
683 [label=<ImportsNb &le; 397.0<br/>gini = 0.048<br/>samples = 244<br/>value = [6, 238]<br/>class = Legitimate>, fillcolor="#3e9fe6"] ;
682 -> 683 ;
684 [label=<BaseOfData &le; 434176.0<br/>gini = 0.041<br/>samples = 241<br/>value = [5, 236]<br/>class = Legitimate>, fillcolor="#3d9fe6"] ;
683 -> 684 ;
685 [label=<SectionsMaxEntropy &le; 7.12<br/>gini = 0.027<br/>samples = 221<br/>value = [3, 218]<br/>class = Legitimate>, fillcolor="#3c9ee5"] ;
684 -> 685 ;
686 [label=<SectionMaxVirtualsize &le; 39046.5<br/>gini = 0.018<br/>samples = 215<br/>value = [2, 213]<br/>class = Legitimate>, fillcolor="#3b9ee5"] ;
685 -> 686 ;
687 [label=<SizeOfImage &le; 79872.0<br/>gini = 0.075<br/>samples = 51<br/>value = [2, 49]<br/>class = Legitimate>, fillcolor="#41a1e6"] ;
686 -> 687 ;
688 [label=<gini = 0.0<br/>samples = 49<br/>value = [0, 49]<br/>class = Legitimate>, fillcolor="#399de5"] ;
687 -> 688 ;
689 [label=<gini = 0.0<br/>samples = 2<br/>value = [2, 0]<br/>class = Malware>, fillcolor="#e58139"] ;
687 -> 689 ;
690 [label=<gini = 0.0<br/>samples = 164<br/>value = [0, 164]<br/>class = Legitimate>, fillcolor="#399de5"] ;
686 -> 690 ;
691 [label=<SizeOfCode &le; 82944.0<br/>gini = 0.278<br/>samples = 6<br/>value = [1, 5]<br/>class = Legitimate>, fillcolor="#61b1ea"] ;
685 -> 691 ;
692 [label=<gini = 0.0<br/>samples = 1<br/>value = [1, 0]<br/>class = Malware>, fillcolor="#e58139"] ;
691 -> 692 ;
693 [label=<gini = 0.0<br/>samples = 5<br/>value = [0, 5]<br/>class = Legitimate>, fillcolor="#399de5"] ;
691 -> 693 ;
694 [label=<ResourcesMaxSize &le; 752.0<br/>gini = 0.18<br/>samples = 20<br/>value = [2, 18]<br/>class = Legitimate>, fillcolor="#4fa8e8"] ;
684 -> 694 ;
695 [label=<gini = 0.0<br/>samples = 1<br/>value = [1, 0]<br/>class = Malware>, fillcolor="#e58139"] ;
694 -> 695 ;
696 [label=<SizeOfHeaders &le; 2560.0<br/>gini = 0.1<br/>samples = 19<br/>value = [1, 18]<br/>class = Legitimate>, fillcolor="#44a2e6"] ;
694 -> 696 ;
697 [label=<gini = 0.0<br/>samples = 17<br/>value = [0, 17]<br/>class = Legitimate>, fillcolor="#399de5"] ;
696 -> 697 ;
698 [label=<SectionsMeanEntropy &le; 4.485<br/>gini = 0.5<br/>samples = 2<br/>value = [1, 1]<br/>class = Malware>, fillcolor="#ffffff"] ;
696 -> 698 ;
699 [label=<gini = 0.0<br/>samples = 1<br/>value = [0, 1]<br/>class = Legitimate>, fillcolor="#399de5"] ;
698 -> 699 ;
700 [label=<gini = 0.0<br/>samples = 1<br/>value = [1, 0]<br/>class = Malware>, fillcolor="#e58139"] ;
698 -> 700 ;
701 [label=<BaseOfData &le; 688128.0<br/>gini = 0.444<br/>samples = 3<br/>value = [1, 2]<br/>class = Legitimate>, fillcolor="#9ccef2"] ;
683 -> 701 ;
702 [label=<gini = 0.0<br/>samples = 1<br/>value = [1, 0]<br/>class = Malware>, fillcolor="#e58139"] ;
701 -> 702 ;
703 [label=<gini = 0.0<br/>samples = 2<br/>value = [0, 2]<br/>class = Legitimate>, fillcolor="#399de5"] ;
701 -> 703 ;
704 [label=<gini = 0.0<br/>samples = 1<br/>value = [1, 0]<br/>class = Malware>, fillcolor="#e58139"] ;
682 -> 704 ;
705 [label=<gini = 0.0<br/>samples = 1<br/>value = [1, 0]<br/>class = Malware>, fillcolor="#e58139"] ;
681 -> 705 ;
706 [label=<gini = 0.0<br/>samples = 2<br/>value = [2, 0]<br/>class = Malware>, fillcolor="#e58139"] ;
676 -> 706 ;
707 [label=<gini = 0.0<br/>samples = 1<br/>value = [1, 0]<br/>class = Malware>, fillcolor="#e58139"] ;
643 -> 707 ;
708 [label=<ImportsNbDLL &le; 3.5<br/>gini = 0.444<br/>samples = 3<br/>value = [2, 1]<br/>class = Malware>, fillcolor="#f2c09c"] ;
642 -> 708 ;
709 [label=<gini = 0.0<br/>samples = 2<br/>value = [2, 0]<br/>class = Malware>, fillcolor="#e58139"] ;
708 -> 709 ;
710 [label=<gini = 0.0<br/>samples = 1<br/>value = [0, 1]<br/>class = Legitimate>, fillcolor="#399de5"] ;
708 -> 710 ;
711 [label=<Characteristics &le; 280.5<br/>gini = 0.375<br/>samples = 4<br/>value = [3, 1]<br/>class = Malware>, fillcolor="#eeab7b"] ;
641 -> 711 ;
712 [label=<gini = 0.0<br/>samples = 3<br/>value = [3, 0]<br/>class = Malware>, fillcolor="#e58139"] ;
711 -> 712 ;
713 [label=<gini = 0.0<br/>samples = 1<br/>value = [0, 1]<br/>class = Legitimate>, fillcolor="#399de5"] ;
711 -> 713 ;
714 [label=<SectionsMinEntropy &le; 5.199<br/>gini = 0.444<br/>samples = 6<br/>value = [4, 2]<br/>class = Malware>, fillcolor="#f2c09c"] ;
640 -> 714 ;
715 [label=<gini = 0.0<br/>samples = 4<br/>value = [4, 0]<br/>class = Malware>, fillcolor="#e58139"] ;
714 -> 715 ;
716 [label=<gini = 0.0<br/>samples = 2<br/>value = [0, 2]<br/>class = Legitimate>, fillcolor="#399de5"] ;
714 -> 716 ;
717 [label=<CheckSum &le; 30645.0<br/>gini = 0.346<br/>samples = 9<br/>value = [7, 2]<br/>class = Malware>, fillcolor="#eca572"] ;
639 -> 717 ;
718 [label=<gini = 0.0<br/>samples = 1<br/>value = [0, 1]<br/>class = Legitimate>, fillcolor="#399de5"] ;
717 -> 718 ;
719 [label=<SectionsMaxEntropy &le; 6.952<br/>gini = 0.219<br/>samples = 8<br/>value = [7, 1]<br/>class = Malware>, fillcolor="#e99355"] ;
717 -> 719 ;
720 [label=<gini = 0.0<br/>samples = 7<br/>value = [7, 0]<br/>class = Malware>, fillcolor="#e58139"] ;
719 -> 720 ;
721 [label=<gini = 0.0<br/>samples = 1<br/>value = [0, 1]<br/>class = Legitimate>, fillcolor="#399de5"] ;
719 -> 721 ;
722 [label=<VersionInformationSize &le; 14.5<br/>gini = 0.066<br/>samples = 30144<br/>value = [1032, 29112]<br/>class = Legitimate>, fillcolor="#40a0e6"] ;
0 -> 722 [labeldistance=2.5, labelangle=-45, headlabel="False"] ;
723 [label=<DllCharacteristics &le; 288.0<br/>gini = 0.5<br/>samples = 1003<br/>value = [508, 495]<br/>class = Malware>, fillcolor="#fefcfa"] ;
722 -> 723 ;
724 [label=<ImageBase &le; 1884651520.0<br/>gini = 0.298<br/>samples = 493<br/>value = [403, 90]<br/>class = Malware>, fillcolor="#eb9d65"] ;
723 -> 724 ;
725 [label=<SizeOfStackReserve &le; 655360.0<br/>gini = 0.181<br/>samples = 447<br/>value = [402, 45]<br/>class = Malware>, fillcolor="#e88f4f"] ;
724 -> 725 ;
726 [label=<ImageBase &le; 668729344.0<br/>gini = 0.337<br/>samples = 14<br/>value = [3, 11]<br/>class = Legitimate>, fillcolor="#6fb8ec"] ;
725 -> 726 ;
727 [label=<gini = 0.0<br/>samples = 3<br/>value = [3, 0]<br/>class = Malware>, fillcolor="#e58139"] ;
726 -> 727 ;
728 [label=<gini = 0.0<br/>samples = 11<br/>value = [0, 11]<br/>class = Legitimate>, fillcolor="#399de5"] ;
726 -> 728 ;
729 [label=<ResourcesMinEntropy &le; 4.985<br/>gini = 0.145<br/>samples = 433<br/>value = [399, 34]<br/>class = Malware>, fillcolor="#e78c4a"] ;
725 -> 729 ;
730 [label=<ExportNb &le; 342.0<br/>gini = 0.099<br/>samples = 404<br/>value = [383, 21]<br/>class = Malware>, fillcolor="#e68844"] ;
729 -> 730 ;
